36 64
25 2.3708932 0.76574016 0.41754213 -0.69750834 1.0403758 -0.69850314 -2.0430822 -1.3486065 0.2326209 -0.55596983 -2.0678704 -0.7636814 -0.9668487 0.35056815 0.843547 0.4998976 -0.18314329 0.70988256 0.8874431 -0.50848496 -0.8066652 -1.2045106 0.72403884 1.2381551 -1.1819398 1.9308336 -0.72669506 -0.757223 -0.98453826 -1.5616964 -1.9620289 0.9048021 -1.8236132 -1.4405816 -0.38442454 -2.6295245 0.43606788 0.6102901 2.722934 -0.6338391 -0.8789767 3.6954544 1.6987436 -0.25638232 2.9248435 0.8554977 -1.2405868 0.024068905 0.5898052 -2.638957 -0.39491355 -3.8068357 0.4832587 1.2811099 0.14120431 0.56399226 -2.5424187 1.7463107 -0.53801566 -1.0219558 0.12168035 -0.13205674 2.0262105 0.51938653
29 1.3843201 -0.85394967 0.8801113 0.7666069 0.4196907 -0.5665925 -0.24781637 -0.25171593 -1.4795547 0.904746 -1.6853433 -2.4566984 1.2947521 -0.51368415 0.37010464 -0.34430864 -2.4893847 0.24696775 -0.491059 -1.8612536 0.59412986 1.2050563 1.9682518 2.6084518 0.36246306 4.0397143 -0.8053921 0.63293684 -1.3065157 -1.7001746 -2.143248 0.7352913 -0.081640474 0.22539017 -0.8768529 -3.1379204 0.7443402 -1.4409931 1.3634312 -1.5925382 -0.4269334 2.236909 2.1147237 1.4284714 -0.21503441 0.50304234 -1.0340391 -0.14980567 0.47296378 -3.5268636 1.0737745 -4.026465 -0.69310904 1.6217653 -1.324657 -0.3703853 -2.9249299 -0.75483036 -0.4086704 -1.5333341 1.05775 1.2465239 0.81820977 1.4215832
14 0.7743807 0.36148155 1.2492934 0.48543373 -0.2918732 -2.5424933 -1.2169691 2.6966627 -0.7104861 2.689464 -1.2254515 0.30847076 -1.1108406 1.4819899 0.9093532 1.478094 0.9316493 2.4767683 0.5485331 -0.4766044 0.6496475 -0.08034326 0.7266524 -0.09872445 1.6125698 1.9144812 -2.0381043 0.5930549 -0.35674852 -3.5342863 0.041895747 0.38854432 -0.29226235 -3.6565387 -0.96773225 0.59762615 2.2654152 -1.160822 1.4710449 0.38963193 -0.952802 2.7161489 1.3124564 1.1832042 2.812119 3.1292384 0.014933234 3.046534 1.3145193 -0.32530448 -1.9403653 -1.1570661 -0.049589615 1.6435355 -0.4194011 -1.1920686 -3.2404423 2.0571685 0.70908993 0.58333576 0.92876714 0.48253056 -2.46164 0.31103525
4 0.29213265 -0.4331535 3.888603 0.9454278 -0.5906376 1.0390534 -1.1129506 -3.3431287 -0.4597112 -0.93023765 -0.7736647 -2.9609873 -2.2502303 1.9591761 1.8116145 -0.6671983 -0.5445547 -0.78196007 0.89051086 -0.70588386 0.20549558 0.5071511 -1.3618878 0.24791022 0.2398928 -0.14328077 0.06958471 0.7558967 0.087704085 -2.335781 -1.1153609 -0.97862405 -0.8519194 -1.2928804 -0.025475813 -1.5229391 1.1498566 -2.0390294 1.0943711 1.602757 -0.82220733 3.3927295 0.92879754 2.707555 0.5220128 1.6621348 2.6179242 1.6884532 0.7828538 -2.2072394 -3.8804703 -1.7857057 -1.860871 -0.83439016 -1.2324991 -0.13780868 -1.3593303 1.2364093 0.15289699 -1.8608774 1.4341443 -0.7977916 2.05332 1.1128341
21 0.97585773 0.44858906 2.8378954 0.8336541 -2.4053717 -1.7460011 -0.13794242 -3.7225316 -1.3938525 -0.17711884 -1.1387253 -3.085376 1.270424 -1.015777 1.2252307 -1.2782989 0.13779391 1.4513564 0.3189126 -0.42332628 -0.4473325 1.4063803 -1.4002982 2.4635577 -1.4701462 -0.91398865 -1.035169 -0.6578136 -1.1150745 0.30859196 -2.7433534 -0.36578703 -1.8361298 -1.2427688 1.0063951 -4.006858 0.61904544 -1.5410569 1.1980714 0.5785632 0.35009724 2.445983 1.8669363 1.4189348 -0.7838082 -0.30623156 -2.4009945 -1.1659981 1.6268176 -3.4156194 -0.43837133 -2.7664647 -1.5501518 -0.21710835 0.6495806 1.2011471 -1.8192035 1.0427562 -1.0783794 0.050984155 0.25516567 0.10844602 2.0020463 -0.3860024
0 3.7919624 -0.83630425 -1.075847 -0.9282553 1.6373211 -2.9832864 -1.3851253 2.5848556 -1.6325147 -0.09612418 -3.2182536 -1.765015 0.8590312 -0.5233818 0.42384782 0.7106671 -0.15876123 1.8704828 -0.11567412 -1.2354913 0.80528826 -0.9324796 1.6864394 0.18454863 0.07074638 2.475758 0.38793686 -1.1533583 0.39330977 -2.812745 -0.3529656 1.3595928 -1.2611516 -1.5279732 -0.36784106 0.953135 2.3077023 -1.3543179 0.8606517 -1.5175455 0.6890144 1.755357 0.52069116 2.488261 2.0140958 1.597303 -2.6975083 -2.2812583 1.4316903 -0.613689 -0.4959205 -3.1301339 0.73207504 1.318872 -0.6996995 -0.44097525 -2.873249 1.4643576 -1.8432031 0.3485201 1.2962674 -0.15646018 1.4846867 1.2803293
31 -0.018724961 -0.54061604 3.4110785 -1.3467114 -1.325289 -0.41982514 -1.1928589 0.6418756 2.841185 0.3248871 0.53912437 -0.8155133 -1.2214843 1.3771589 -1.4695424 -2.8460515 1.8878703 -0.52308434 -0.7136601 -2.5156763 -0.17032067 0.030068867 0.07129227 0.7709746 -0.45556888 -1.4723395 -0.7223761 3.0606248 -0.9856675 -2.8301957 0.2048715 -0.4631019 0.14783153 -1.359189 -0.044893857 0.40534618 2.1545913 -0.29995975 -2.6816103 1.2380165 -0.44782603 1.8990847 -1.1321526 1.1430207 5.0635004 4.244807 2.009576 3.250419 0.45935574 0.6814128 -6.232964 1.2269746 -2.4168317 -0.20851706 -0.27728954 -0.17459543 -2.6626241 4.122729 1.2319119 1.5894017 0.8199677 2.2912395 0.8699281 1.343609
26 0.4737746 0.10394067 1.1903603 1.6477665 1.4126135 -0.322604 -0.33876196 -1.0675576 -0.8705138 0.7856474 -1.4629637 -1.5887133 -0.07205882 -1.3202608 -0.039289724 -1.2455506 0.15852748 2.2505426 0.31992322 0.16251966 0.31301516 0.48412585 0.009564368 1.6127717 -0.31176248 0.62288415 -1.012038 1.2780349 -1.4944221 -3.1379883 -0.26921877 0.5862566 -0.8650755 -2.166838 -0.04586892 -0.50169504 1.7788702 -2.3200502 1.588938 -0.21181858 -0.51571816 3.127039 0.69736016 1.6691607 2.091857 2.5659764 -0.15440765 0.98374516 2.1693 -1.7299284 -2.0636468 -1.2735667 -0.27245334 -0.48002544 -0.7990495 -0.90103096 -3.0450847 0.37778443 1.2198645 -0.86568254 1.1762116 1.897432 1.7994106 2.9891248
12 0.52271456 1.165045 -0.10981518 1.9955115 0.19786967 0.16882838 3.0487726 1.4495039 2.6623313 -0.19891526 1.254499 3.0035138 -2.0931573 0.4133322 -0.58055097 2.0960665 -2.27379 0.7256861 2.6425738 4.972177 -4.099611 0.049024437 -1.5184873 -1.4295939 -1.6748546 2.6905565 -2.8049226 -1.5129399 1.7946404 1.921086 3.408076 2.2112672 1.862689 -1.3142921 -1.384195 4.280975 -1.4532521 0.9422123 -2.9280505 4.3906856 2.4607077 -3.529445 1.0311648 -3.551665 -2.5575745 0.41027254 0.026936116 -2.0774448 -0.7373567 3.4044044 3.5741334 4.6792603 0.620681 0.75146955 -0.8353594 0.34090853 2.0302992 -3.2580287 1.4471768 0.057039004 -0.93009406 0.34119672 -3.5731874 1.9424293
16 -3.3938754 -0.39392284 -4.403709 0.5307413 1.4285023 -0.12231879 -0.20948103 -2.3939197 0.06863182 -0.26449743 0.7060959 1.6108513 4.9880996 -2.1004674 -2.7331183 0.07704933 -0.37210476 -0.5926139 -0.9797969 -3.29481 2.0306265 -0.038398188 -0.086323306 0.19892603 2.318329 -5.877324 0.37719336 -2.1605299 -0.7928277 3.2083175 -1.0421805 -1.891981 1.1320801 2.3759828 0.63206834 0.69814086 -3.1349146 -1.1923928 3.5084074 -0.5909429 -1.2567627 -2.2284245 -2.7330546 -2.226305 -5.224082 -3.514383 1.6935612 -1.9036798 -0.39214346 0.64528346 -0.76343423 1.5820216 0.65878046 -2.0432613 2.8769536 2.3771899 3.9441562 -0.3514385 -1.1919363 1.3314338 -3.3156457 -1.3395727 -1.2940764 -4.249515
9 0.27719226 1.5775452 -2.110245 3.5853293 -1.043182 0.73572856 2.4562554 2.3311074 3.131149 1.7836171 0.5038737 3.4572484 -0.21196598 -0.122824945 0.38730797 3.0481722 -2.0015118 1.2867202 -0.09499097 6.219438 -2.1837223 -0.8919813 -1.0474814 -1.8586497 -1.1117666 1.2145476 -1.0330321 -1.8352982 1.7940708 1.3775537 4.328511 0.3824833 2.0258608 -0.86790544 0.90043664 4.3809257 -0.8227871 1.3947023 -3.498607 3.010861 1.0269505 -1.4953047 1.7244686 -1.7003328 -2.5930748 0.5789383 1.6160024 0.30543783 -1.2795451 3.3032067 4.4694843 4.3504457 2.076642 1.3505698 -0.17213021 0.41790769 -0.044217084 -0.65712667 3.1053493 -0.5926665 -1.6401671 0.31708264 -3.5171115 1.1419605
17 -2.9778626 -0.9567977 -2.7788334 -1.2641505 -1.0283977 -0.0018483527 0.354545 -1.3983349 0.21391882 -1.0930262 1.32642 1.0215769 4.426214 -1.4782387 -2.1499906 -1.168846 0.77130806 0.9905969 -0.31297046 -0.5086014 0.5685845 2.343642 -0.82736284 1.6652637 0.55320215 -4.749671 1.7467558 0.4742711 1.1639882 4.5215263 -2.388191 -2.3630447 -0.6679434 2.230283 0.7090503 -0.30043915 -3.1417637 0.5194736 5.570086 -0.6477819 -2.4026527 -2.9042792 -2.3728235 -1.110638 -5.173528 -2.9145238 -0.21875116 -2.6483428 -1.5331925 1.8426889 -1.31291 1.2958107 0.71327764 -2.5775163 1.481368 3.2121077 4.4721866 -2.4555824 -1.7137234 0.5697634 -2.380625 -0.8254427 -2.660005 -3.6851401
8 0.7192659 0.47528815 -1.5741777 2.4945354 -0.44408 -0.5576302 0.48047695 1.3388703 2.69517 2.5844328 3.7689962 4.278794 -1.3459074 -1.0249388 1.2404363 3.4066346 0.45394194 0.7407528 -0.41361633 4.9925475 -1.7494291 0.049824424 -2.7248032 -1.589152 0.7593495 1.3291171 -2.8774123 -1.9855909 2.3458946 0.30696133 3.5782957 2.0390377 1.8965334 -0.30119988 -1.6397837 5.414846 1.3535613 0.8242367 -1.1870015 3.7142718 1.1061494 -1.4202069 2.8431845 -1.9359398 -0.4509531 0.22404951 0.4357202 1.8117458 1.5105778 2.7442536 3.836541 3.9747791 3.2064784 0.54765093 -1.1481658 -0.26301792 -1.7401962 -1.4369594 2.9705062 2.1589754 -0.5237068 -0.86147976 -5.5907006 2.3303447
18 -3.3138735 2.8385108 -0.14108635 1.3842236 -3.1054902 -2.6247604 -0.5439252 -4.043244 -0.8506004 -2.5520232 1.5044817 1.36549 4.8998294 -2.8527024 -1.4869686 1.0204962 0.7561242 -0.1758662 0.6193785 -1.0886972 1.4818757 2.9819694 0.4782209 1.1256032 1.2810856 -4.7620916 1.8529859 0.025860623 -1.194454 4.850098 -2.9382129 -2.5920331 -2.487434 2.876722 -0.4038818 -1.1876754 -2.0441554 -0.5727018 2.6003559 -0.85342944 0.13621168 -2.105006 -2.837015 -1.5667409 -5.4452467 -2.614721 -1.4386979 -2.7800078 -0.30315784 -0.3254638 -1.5890781 1.1470659 0.31058845 -0.9791007 1.4505767 3.4235277 3.442232 -1.2697879 -2.722482 -0.31099638 -2.752758 -1.3174769 -1.5436642 -3.3817124
30 -1.0548357 -2.6110995 3.0610356 -2.8484304 -0.4222933 1.9686635 -0.21393326 2.8255801 0.9859671 0.46155465 3.7751038 -0.61503744 -4.8165 1.6977792 -3.2857273 -1.9561857 4.1241064 -2.7845592 -0.11461588 -0.9397251 3.5668027 0.7511847 1.7934892 -1.389901 -0.5779242 -4.815306 1.1128522 3.267791 0.24445044 2.3945606 0.4073478 -0.6530808 3.236006 2.374704 0.93931985 -0.40424582 3.2870057 2.86331 -6.20417 -2.794195 0.08532435 -2.7422159 -1.4364427 -1.2328935 2.6014934 2.2282834 0.57584774 1.998654 -3.9449644 2.9747505 -0.70477235 1.980592 -0.95098466 0.2937586 3.2374415 -3.6146314 -0.029177435 0.84908414 1.0415194 -0.95568234 0.3094121 1.4492887 2.1541483 -1.6576066
10 -0.049979568 -0.106294006 -0.7922935 4.7264085 -0.24131718 -1.5011642 1.0644348 2.2678797 1.2114493 3.3661408 1.9435284 5.7607045 -0.4821763 -0.15406294 2.2583985 2.8846924 0.55626404 3.2875547 -1.2146069 4.5273767 -0.83901554 0.9721611 -1.1820838 -2.0322018 1.911204 1.7490501 -1.4647229 -0.8094925 0.9697284 -0.99345964 4.1217537 1.0344466 0.52942425 -5.1716237 -0.7673862 3.6042743 1.3001361 2.005207 0.1139992 2.0800774 0.96147084 0.28789327 1.3221047 0.430706 1.9630778 0.47730288 1.3997482 2.6032934 1.5183574 2.876781 3.218506 2.9793615 3.9133437 2.7315302 0.032243792 -1.0261828 -3.425462 1.3254814 3.7965176 2.2224472 -0.9260603 -0.15969867 -7.1662016 0.7750155
19 -1.2857178 1.4577023 1.585684 -0.64714265 -4.2536917 -3.1382537 -0.14235091 -2.8348844 -1.5260047 -2.4057477 0.26905677 -1.625387 3.80778 -1.1423141 0.92485106 -0.8064439 0.26228425 1.1925288 -1.3750126 1.0440514 0.32580522 3.950145 -2.4875367 2.9141796 -0.9021578 -3.8931167 0.4175001 0.75638545 -0.9326678 5.764126 -5.196105 -2.8568528 -2.872177 1.6974187 1.650089 -3.5896862 -1.6297348 -0.26298347 2.4517338 0.045306284 -0.80923814 -0.9728598 -0.76447105 0.39217323 -5.309062 -3.3473623 -2.2878685 -3.2727392 1.7991536 -1.9994737 -1.8101572 0.7442488 -1.0426558 -1.4094385 3.01903 4.059484 1.3158709 -1.5239129 -2.3658178 0.27251104 -3.4821613 -1.3106734 -2.497927 -2.9954436
33 -1.753426 -1.1939392 3.7421412 -4.947177 -2.1658988 2.0274076 -0.32646874 2.7636497 2.4971678 -0.24987341 5.050044 -0.8278791 -1.7268206 1.8692325 -3.5167613 -3.7533953 2.6376925 -4.092384 -0.8412355 -2.8894541 1.1436543 -0.83790445 1.1916479 -1.8529562 -0.43601552 -3.2915132 -0.06499876 2.479377 -0.6831556 0.4514473 0.15789753 -0.29401556 2.4723315 0.84490895 0.3913306 0.37168825 0.76399344 1.4029136 -6.131537 -1.7388295 0.3505531 -1.7695968 -1.5753721 0.01908552 4.782507 3.3184025 1.0740415 1.1847056 -2.5952203 2.8644311 -3.6538665 2.769407 -3.0818849 -0.22424237 1.7190828 -3.2123787 -1.2327385 3.400071 2.4029653 -0.73572856 0.92880017 1.575865 0.7261658 -1.7259476
6 -2.9086144 -0.63936424 3.8590562 1.3544279 -0.030698244 5.2221656 -2.1862621 -5.241111 -1.0048807 -2.354179 -0.30644253 -1.23063 -6.6589317 1.6955353 1.7694108 -2.3876438 -1.608472 -0.4282257 -0.6135543 1.2362119 0.0076928507 -1.9333224 -3.1871579 -0.0690598 0.6479503 0.49975625 4.3406196 -1.1291885 2.7376342 -2.6840549 1.1573689 -3.2202902 -1.4175959 0.092978746 0.52390105 1.3829519 -0.5577207 -3.2689009 0.6749123 2.1410904 0.21888477 0.22179788 -3.2521758 4.9799957 0.9269628 -3.6230888 5.905997 0.41829443 1.7446856 -2.754031 -0.30689228 0.59582514 -0.36189163 -0.9321336 -2.5602279 -2.8013499 4.831065 -0.8167239 0.92290974 0.05237786 2.0754597 -1.6039064 4.5658298 1.7872909
13 2.3319027 -0.43748695 0.24170624 1.7530428 0.023918176 -3.3906026 -1.8223134 1.3791866 1.1977814 4.4641256 0.8858902 2.6332736 -0.3977404 -1.3185809 1.2591354 2.5707726 1.9843795 2.0841813 -2.7950222 3.8339412 -0.003164813 -0.09519269 -0.80451053 -0.70310724 2.193892 1.3430483 -2.452537 0.6972805 0.09424481 -3.1143026 2.8380647 1.1596885 -1.4107057 -3.1603067 -1.4678149 4.472871 3.0552526 1.2247148 2.0162497 2.3559573 0.71434635 1.5915703 1.5623065 -0.37725207 2.4242632 1.5481005 0.5408619 3.5831473 2.4060762 0.8755646 0.55104244 2.4026666 4.013144 0.39967048 -0.8138968 -1.5565621 -4.5453024 1.6277364 3.6782637 2.206534 -0.35063028 -0.54473597 -6.4396296 3.2263074
28 -1.6393437 -0.040049773 -2.0052748 2.4535472 3.6451519 2.2194307 1.9589689 -0.02621277 -4.0718937 -0.3908622 -0.7000937 0.67066777 3.051525 -3.7422647 0.010953379 -5.5415382 -2.4557397 -2.5524027 -3.6192102 -3.2805958 -0.59883046 1.7665352 2.4142294 0.5903167 -1.7595445 7.3239737 -1.5193541 4.0915565 -3.0929708 -2.739616 -1.0190045 3.2533844 1.5443882 4.433063 0.6959455 -4.204142 0.11311197 0.15439242 -3.157131 -3.4123526 0.35003012 -0.7985393 0.97153026 1.4664661 -0.9646719 -2.2215526 -0.27051905 0.93827343 -1.8478773 -2.15331 4.9195127 -3.0288973 0.8248437 0.5233152 -2.834785 0.58375686 0.6773479 -4.1096683 0.7687077 0.4113467 1.2562491 1.8482639 -0.5003416 2.127839
34 -1.088062 -1.8693568 5.3501377 -2.55074 -1.3213544 0.0489487 -0.2515198 3.726957 2.370442 -0.024333054 1.174635 0.26736334 -3.406618 2.3331368 -3.4908135 -1.3078265 4.585994 -3.9060585 -0.60768145 -3.494839 2.2680674 0.12786879 0.67195266 -1.8094169 -0.45275176 -3.2528858 -1.6749159 2.828852 -1.7572069 -2.1231098 0.5587765 -0.37146783 1.2702234 0.44974145 2.487022 -1.156726 3.5483391 0.13623989 -4.601126 0.088964716 -1.0842209 -0.7566696 0.3397132 0.093514435 4.348815 3.851192 2.135369 4.1144266 -2.2675865 2.817039 -5.700105 1.9978538 -3.437048 -0.43355578 1.9554503 0.01815926 -0.28779843 1.8590031 1.0639116 -0.20835099 1.7084104 0.946433 1.2076038 -0.4274909
2 1.6643597 -0.30522797 -5.303324 -2.9717956 2.9740317 0.45316595 0.78282064 5.8799706 -1.6875993 -0.5387644 -3.6935658 -2.653879 0.97568953 2.7150486 2.2919538 4.7246103 -1.1975461 -0.759575 0.21150044 -1.9942651 0.1062614 -0.51540774 0.42357403 -0.9322883 1.5463643 1.916418 4.2993116 -4.312433 1.799174 -0.5566499 0.63010854 0.89881504 -2.1206641 0.8514833 0.86874026 3.0288088 0.7795714 0.7098073 -2.5701678 -4.823225 2.8059344 -2.7827313 -2.5116038 4.0132556 1.626 -0.3773083 -4.2378073 -3.3912048 3.1037931 2.9363525 -1.277964 -2.5607183 1.546855 0.121268205 -0.6004929 0.7917805 -2.0519679 -0.7642793 -5.7288113 1.6633047 2.2609193 -0.77482307 2.2568326 1.5379008
23 3.9418805 1.563069 -1.4387645 -4.4577436 -0.37258402 -1.0432612 -3.1358724 -4.188042 0.9181926 -2.363275 -2.5938835 1.7130623 -3.040771 2.079242 2.9221137 1.4555941 0.6803133 -0.028590837 3.6151426 -0.5774541 -2.1568453 -5.198 0.6268997 -0.63424426 -1.953599 3.0031285 -0.40097055 -2.165852 -2.5422723 0.3100244 -0.0713302 2.2121148 -0.26683772 -0.4508952 -0.70391744 -3.306631 -1.4298643 4.3928227 2.9477725 -3.206716 -3.538687 6.0122614 1.1211694 -3.470415 4.5981174 -2.59613 -1.2989047 2.1438394 -2.2466974 -0.5657457 3.1220186 -3.3922353 0.7056052 -0.29601958 -0.76663464 1.9650724 1.1324035 3.0535889 -0.52569926 -2.5570273 -1.0812535 -1.144205 2.0171158 -2.1610742
24 5.0517 0.68279505 -0.8624841 -1.9722632 -2.1754463 -2.257164 -2.210102 -2.8308713 0.7418098 -2.3739877 -3.465929 -0.20097843 -2.024802 1.1384513 3.0293238 0.5677237 1.5954123 0.0011840328 3.7162077 -2.0882373 -1.8959054 -4.5881557 -0.2291537 -0.5382746 -1.0841129 2.1968384 -0.07967832 -1.074457 -1.5913082 -1.0961146 0.348555 1.1915294 -0.0661588 -0.9192656 -1.4929999 -2.6373868 -2.6001747 2.9305718 2.9338934 -2.3074374 -3.992598 4.7298164 0.86018836 -2.2532566 1.9905607 -1.966877 -0.9979837 2.0706992 -2.1745954 -0.6828491 3.1719985 -2.9158502 -0.60915303 0.54219043 -0.5478777 -0.5736463 -2.1484346 1.323495 -0.8801442 -0.34213614 -0.06657032 -0.33674693 2.519221 -1.7007556
22 4.422118 -0.23175614 -0.90920436 -2.5935717 -2.2496376 -2.2994864 -2.593574 -3.0549066 0.016770685 -2.283078 -3.1957486 -0.89160085 -1.1762936 1.2017426 3.1202211 -0.007688165 2.2865021 1.09505 4.3720307 -0.8675321 -1.6229941 -4.329504 0.6712156 -0.21476142 -0.33886132 2.6483362 -0.909635 -1.6101952 -2.3353336 -0.7056513 0.3536938 1.7149658 -0.040518638 0.27778387 -1.2873743 -3.0964007 -2.577014 3.3993921 2.942629 -1.357717 -3.1163762 4.2339916 1.381893 -2.029892 2.364443 -2.0959296 -0.017484901 2.270849 -2.1743681 -0.7112107 2.2845452 -2.5935054 -0.3616512 1.5146035 -0.52122045 0.011315753 -1.7803999 1.9991753 -0.66778773 -0.75440735 0.49012315 -0.6056317 3.0634148 -1.6882879
5 -3.3335147 -0.42260617 3.5265017 0.71038413 0.4414342 2.9591715 0.6693584 -5.193928 0.01541587 -0.19362018 -2.399107 -0.27000704 -4.752332 1.104876 1.8839271 -2.5660243 -1.8128146 0.11739229 0.8680312 -0.10006138 -1.0811177 -1.3280852 -3.5433507 0.646431 1.0591104 -1.3166239 3.625044 1.4560223 3.4615107 -1.7365059 2.062598 -1.5361009 -0.70392966 -0.17683952 0.9088424 -0.7939726 -0.6363551 -2.2790353 1.1155313 2.6425972 1.5166986 1.4600915 -0.54465723 3.441269 2.1587229 -1.4101365 4.4678073 1.5230148 3.1472447 -4.41872 -2.329978 -0.14992003 -2.0336552 -2.2130184 -1.8363967 -2.6649635 1.9638966 0.7513841 0.01621418 -0.75474674 1.7120842 -1.5414473 5.320882 3.2878869
20 0.10490799 2.224923 3.5357616 0.8868495 -4.5657845 -3.079455 -0.34591588 -4.61949 -1.6552138 -3.4449642 0.2888579 -0.9125376 3.2596173 -1.6734862 2.1813843 1.3516738 0.33829656 -1.326829 -0.9205428 0.43982828 0.12010899 3.7355814 0.31962034 3.2304988 0.9544375 -3.4208636 1.6835036 0.49241716 -1.0422227 4.1804338 -6.103832 -2.0637736 -4.1330466 0.2581195 -0.4459838 -5.2996926 -1.2017819 -0.57506824 1.6835533 2.0642788 0.6413732 -0.6191308 1.2752067 0.1427094 -4.245867 0.06246103 -2.2972953 -3.4450476 1.3496777 -3.1680639 -2.0802555 -1.1118168 -0.39176926 0.3179906 1.0370524 3.8192718 -1.3198265 -0.16447768 -1.3865848 -1.2850461 -2.358958 -1.0717851 0.10208605 -1.9691793
35 0.8890816 1.2056714 -1.0636861 2.1448193 4.0309057 2.8071651 1.4214369 0.25144446 -3.2815974 -0.17916837 -1.5157111 -0.7767729 2.8490613 -3.6961076 -0.33992645 -3.410321 -0.7596115 -0.3019773 -3.4142094 -1.1915061 1.2940427 2.2840912 1.934107 -0.7080135 -2.0989478 5.538761 -2.6744494 1.091772 -3.4301834 -2.4611084 -1.2216858 2.799186 2.6990883 1.3840929 -0.26132438 -5.8186326 0.1826286 -1.8312604 0.20312661 -1.9097099 -0.23701172 -1.0924424 0.92246586 1.937195 -0.3004546 -1.1681058 -2.9335284 -0.12366324 -1.4009495 -4.4883356 2.6634998 -2.3216588 0.06541625 0.3351205 -4.1266265 -1.135194 -0.583857 -2.1780753 -0.091127545 -0.68767 0.8379895 3.0294037 1.4058803 2.1455076
1 1.8167105 1.0987687 -3.5838912 -1.4624252 3.0266807 -2.1815135 -1.408019 7.497839 -1.1669326 0.39976767 -2.0996099 -3.556659 0.97214115 2.0119696 1.4545856 3.1369104 -2.5031152 0.4575976 -0.23504646 -1.4341283 2.0707107 -2.05439 2.6356676 -0.1264205 0.7096324 3.0221062 2.768255 -2.6687322 2.5024123 -1.3323287 -0.9331489 0.3578022 -1.8389381 -1.6388357 0.9243633 2.578726 -0.0077719204 0.49250945 -0.325783 -1.749322 2.8673618 -1.0523825 -1.5868714 0.95350575 2.0929053 0.037797797 -3.935361 -1.1717342 3.849811 0.7625716 -1.3387936 -4.8549867 0.63544184 1.1908507 0.5744834 -0.19704276 -1.4668889 -1.8316308 -4.969858 2.095488 3.3924184 -0.072665825 3.027178 0.37668926
11 -0.0075343978 1.7709193 -2.306673 1.8017106 -1.9019184 0.6141334 2.8976028 1.191212 2.5182018 0.9651471 -0.42730373 1.6753144 -1.2651204 0.61554414 -1.2195193 3.1092877 -2.9341764 0.63628316 1.8506916 5.583271 -2.7685077 -0.8414925 0.03292255 -1.1248974 -1.6472855 0.86289847 -3.2993617 -1.5646533 1.6379482 2.1149814 2.1656 -0.06519333 1.541331 -0.081012525 1.0012108 5.8503013 -0.36407202 1.2894927 -3.4866447 3.3521562 0.94031477 -2.8632305 1.1491956 -4.1366553 -3.6350813 2.373139 0.76817316 -1.4904183 -2.8320692 2.8255358 3.4635134 5.65287 0.58716244 0.34429565 0.4115864 -0.67662656 2.2715008 -1.036243 2.102912 -1.1664972 -2.7623177 0.154591 -2.4349713 0.8818458
15 -2.770159 -2.5121758 -3.043103 -1.5995711 1.3111523 1.0331931 0.45838368 -1.4975463 0.5744192 1.5112078 2.0085557 1.3611193 4.24284 -1.5174723 -3.3403108 -0.80787814 1.1512349 0.4366508 -0.3429712 -1.345611 0.3032668 0.2681856 0.33612505 1.7122284 1.9605837 -6.1997533 1.7633982 -1.4599886 0.9778129 3.270904 -0.46408382 -1.232987 0.63366467 0.8168011 -0.24089141 0.14151597 -3.4317844 -0.5896152 4.960318 0.4326129 -1.7247587 -2.5070992 -1.5821832 -2.2315893 -5.6516633 -1.7560874 0.7963219 -1.6708058 -2.774627 3.7554698 0.12738156 0.2738291 1.3058558 -3.0379682 1.005797 3.492964 4.561634 -0.9347181 -0.020592116 1.0683422 -1.342337 -0.0671581 -2.5303276 -4.396978
32 -3.4240267 -1.4155015 1.7060192 -5.0414567 -1.0581658 3.1266873 1.0262305 2.575777 0.27744964 0.6249314 5.739224 -1.1781824 -2.4522583 1.0361007 -3.5280092 -3.1519382 3.7578743 -4.0743275 0.10147296 -0.66811395 2.1730711 -1.5524833 1.1353799 -3.564333 -0.65197694 -4.0578604 0.5612884 2.374602 0.21253283 0.9849301 0.70211226 -1.193438 2.745931 2.2454665 -0.010384075 0.6070008 0.4723839 1.8047775 -5.716309 -3.7129047 0.7793676 -2.0866768 -0.9179917 -1.9749603 2.8028927 1.9247621 -0.17937048 -1.2116002 -3.6632087 2.6026049 -0.13216808 2.2632582 -1.8012333 0.7665627 3.746887 -4.1378336 -0.2964131 0.56931335 2.565997 -2.5473402 0.88270473 0.40762636 0.2544669 -2.2169442
7 -4.173086 -0.88114506 3.322186 -0.42710033 1.248341 3.3762367 -0.113857225 -4.5356517 -0.6374099 -1.0710639 -1.8378861 1.8236423 -6.276885 1.2130637 1.4753346 -2.2057016 -2.530927 -0.13671054 0.0964613 0.94212997 -0.8788575 -2.4701939 -3.5692978 -0.44300857 2.086488 -0.65763336 5.4998665 1.065982 4.67625 -0.5828044 3.565786 -2.2406871 -0.020154413 1.56706 1.2051024 0.75832874 -2.0889058 -3.0574386 0.7931697 1.9633175 1.686324 -0.8374455 -1.9962381 3.9973207 1.1023101 -3.9825752 5.8704386 0.2233007 2.6361282 -4.0531187 0.32751602 1.052379 -1.4660441 -2.2654922 -2.109755 -4.140862 4.557912 -0.6280976 0.14586252 -0.4884397 0.90294105 -2.8756075 4.809493 2.5991187
27 -0.40389812 1.744065 -2.7192063 2.0492206 4.8675504 4.2705755 2.119441 0.4416463 -3.7719326 0.0045855814 -0.6990206 0.39109305 2.7688751 -3.4655724 0.10971855 -4.701597 -0.8596901 -2.1226182 -4.110725 -1.8761694 0.9782183 2.1394002 1.4761099 -2.4250298 -2.1032562 5.9724717 -2.2235029 2.5276983 -2.91785 -1.9172034 -0.1902192 3.443783 4.05643 3.8095953 -1.0526769 -5.5927796 -0.7181614 0.2738243 -2.491234 -2.657924 0.20927767 -2.7024653 -0.5576707 0.7945382 -1.4150087 -3.2262752 -1.6886139 0.61759526 -2.6343265 -3.2407134 3.9624658 -0.71425545 0.84556305 0.59314966 -4.099861 -0.31711498 1.8086287 -3.1834934 -0.03776981 0.16252048 0.30944502 2.7656841 -0.63998306 1.7993052
3 0.8888356 -0.004732373 -5.6229987 -1.804295 3.9881349 -0.61508065 0.32375586 6.175841 -1.4131798 -1.1342331 -0.34507728 -3.410591 1.2964504 2.8860185 2.7258682 4.1888266 -2.386949 -1.3982159 0.08196936 -0.68530667 2.049145 -1.5795518 1.8467336 -1.9740863 0.9181179 1.7409697 3.9112394 -3.1367867 2.2146745 0.31788307 0.87944037 0.038708955 -0.8392582 -0.7016603 1.9909621 4.091797 -0.7916093 1.5978842 -2.5067239 -3.2670722 3.3381999 -2.5900733 -3.1708078 0.31467006 1.7113721 -1.1696734 -4.0168767 -1.9303383 3.7865086 3.6722608 -1.0887201 -3.584653 0.5127185 -0.766254 0.63131297 0.8247376 -0.46296373 -3.5641308 -5.7734003 2.6331615 3.526702 -0.32922924 3.534496 0.39541245
