36 64
25 -1.301209 2.5152557 0.78338647 -0.17955808 -2.7309067 -2.5769699 1.5063593 1.1110427 0.84064066 1.3443974 0.6530404 3.0867176 -0.15548502 0.8045299 0.092414245 -1.765192 1.011868 1.341391 -0.00564802 0.43453696 -0.63294715 -1.9669474 -0.86708194 -0.67612803 0.7512841 -1.3847792 -0.4113425 1.0339216 0.16866219 0.1895151 2.489919 -0.5699768 -0.6361472 -1.7721751 1.2145377 0.5731868 -2.1041322 0.25834432 1.5323465 2.5697558 2.2715492 0.2011457 0.73937 0.8435243 -2.3030386 -0.9843788 1.3518963 -0.10926605 1.0650066 -0.7230225 2.768837 2.3891473 -1.309605 0.721278 0.5772598 -1.7341478 0.48764443 -0.5568769 1.7801464 0.1258477 0.82876676 -1.0456989 -2.6718953 -0.29867715
29 0.5678084 0.44018415 0.5158465 -0.07194605 -2.4478817 -2.7870207 0.06648409 0.34501514 1.3985641 1.2179353 2.8687148 2.439237 0.76910925 1.1628288 -1.0728465 0.21715337 0.31263313 1.6026574 -0.29165512 -0.004464747 2.096952 -0.78020453 -1.4529681 -1.0451097 0.4812699 -2.110712 -3.2075639 -1.6200025 0.9043053 0.5182694 0.64286 0.114772595 -2.9592333 -3.611619 2.7480488 0.8181884 1.3334314 -1.0055561 1.913228 2.1009965 1.2439102 1.4902172 1.6235752 0.42131418 -0.018278856 -2.7063172 -0.9481491 0.12845625 0.8652619 -0.99516064 2.6815777 2.6625228 -1.5047596 -0.20897242 1.041587 -0.97454756 0.30696517 0.98485595 1.8664362 0.7306689 1.0659027 -1.6223686 -1.1182945 -0.1351065
14 -1.6246041 0.86156315 0.046214726 2.7757204 1.1120661 0.13146147 1.9803253 -0.9758468 -1.2552577 1.6313742 -0.33624265 2.3792472 1.311064 0.83269894 -1.147303 -1.4373059 -1.1348841 2.487681 0.81009436 -3.2984693 -0.28506196 -0.63046306 -1.9313844 -1.6916885 -0.8569533 -2.2936332 -1.88585 0.41653743 -0.8289358 2.0969784 2.3065836 0.23404405 -0.1244188 2.0645595 0.9166582 -0.5065611 -0.32160202 -1.4720987 3.2338507 -0.17962076 0.51366353 0.7469998 -0.84118557 0.6645163 -2.288175 -3.0780597 0.60227436 0.008738702 -1.3762032 0.22265187 1.6919768 0.9407787 -1.2681668 -2.5357072 -0.30420735 -3.0237694 -0.46808445 -0.6052583 -0.17995161 2.010011 0.22199607 -0.7484213 -3.5034735 -1.1399876
4 -0.47464162 2.4761653 -1.248875 0.42567044 -1.5903149 1.1088471 1.0421937 -0.67320806 -1.2211314 1.7113451 0.00616215 0.7681481 -0.1879869 1.872331 1.3344578 -0.16542885 -2.357695 1.8649669 -0.1725041 -0.76887363 -0.75335103 -0.41433865 0.55165845 0.58509 -0.41194844 1.2930098 -2.4340572 2.9686358 -0.56374526 1.5765328 0.36177203 0.8533602 -2.1211889 -4.960737 -0.6564981 1.5022479 -0.9164102 -0.43248433 3.779832 1.7315549 -1.2965431 1.2698885 0.67825943 -0.32811254 -1.5550207 0.27879137 0.85504675 0.9421267 1.1162925 0.26755738 1.5048556 2.514608 -2.0199976 -0.18307228 0.11945804 0.9176608 1.8032168 -0.1699835 0.7655613 1.2606716 -0.806663 0.4559061 -4.9154963 0.42708626
0 0.19907874 2.407141 0.40925357 -1.623605 -2.525357 -1.9443338 2.8758347 -0.4187994 -0.40965915 1.1179001 -0.26703534 3.1886985 -0.26630402 0.118875995 -1.4922465 -0.90239775 0.57184243 1.7405046 -0.37904975 -1.8937587 -0.12175415 -1.7040783 -0.4564133 -1.7567003 -0.49443877 -2.6003664 -0.55099726 -1.9333508 1.3465784 -0.7287285 4.26444 -0.28559706 -2.5261474 -0.23250273 2.7257285 -0.15798639 0.30892345 0.28939843 -0.21677583 0.7095823 1.7049906 2.2079723 -1.1888261 1.2711828 -0.98349965 -3.0200567 -0.7597507 1.0595366 -0.25593084 -1.6922183 2.9925153 0.9546675 -1.6245096 -1.2216197 -2.3450747 -1.9679017 0.011697722 1.0253026 -0.5231343 0.5447211 1.2707231 1.1389236 -1.2153798 -0.32528153
21 0.44562313 0.51632303 -0.31584463 -1.9089925 -2.8463326 -3.264074 1.1324893 2.8395944 0.50183886 1.7336465 1.1752001 1.4741827 -0.6323844 2.7196708 2.2678723 0.13062024 -0.7383582 -0.20174558 -3.3024347 0.058496658 0.24749699 -1.1540784 -2.267129 -0.6733615 2.110481 -0.823729 0.31046787 -0.02771435 0.35113856 -0.031651337 1.1118307 -1.5224065 -2.438737 -2.9233916 1.3328978 3.3766148 -1.1150388 -0.21612793 2.475474 0.95945954 -1.5380733 1.6116835 0.8802938 -0.9040533 -0.62376034 0.3069041 1.738317 0.68637526 1.7982347 1.4473709 1.2261407 3.5704148 -0.036662087 -0.03365396 -0.21209352 1.1155857 0.44895998 0.096542105 1.3499953 1.2054255 0.21809621 -1.6272013 -2.3508916 1.6919453
31 -1.9059812 0.31777284 0.35613114 2.9774213 1.3573992 0.30214652 0.7629263 0.38633195 -0.41935328 0.98682266 -2.621804 2.9583962 -0.6014029 0.31064004 -1.8224779 -1.4061505 -3.4930172 1.0852164 -0.27995005 -4.8364434 -1.1272608 0.69559264 3.335033 0.4182914 0.11836674 -0.16503356 -1.7963907 2.4458485 -0.0065273205 2.2658906 -0.7368698 2.0127118 1.0367494 -0.61353123 0.36688933 0.74575585 -2.9055135 -1.607881 4.1673646 0.6789242 -0.042932283 1.3999499 -1.9798809 -3.6089776 -2.5465648 0.9723215 2.5031295 3.999899 -0.08049073 1.1846873 0.94001496 -0.8091377 -2.9766052 -1.9111017 0.48779842 -0.7545107 1.579823 -2.1454856 0.084196374 2.6597574 -0.5055682 3.4055092 -0.9655983 -0.32912645
26 0.8129082 1.3529383 -0.98713785 -0.70977914 0.16980982 -0.30971742 1.3729599 0.4764584 -0.36960632 2.7765205 0.4977419 2.501474 0.42498642 0.36340675 -1.8992935 0.34391955 -0.97693485 0.89989185 -1.1167294 -3.2575397 -0.22274172 -1.971591 -1.1150872 0.2961003 -0.2248999 -0.8863321 -2.074277 0.5432171 1.0604242 1.6239523 2.0602062 1.0315214 -0.8666243 -1.5587258 0.21460426 0.42839497 -0.88358027 -1.7747128 1.8520824 1.7634404 0.5054259 -0.09866598 0.66073424 -0.4384235 -2.1179824 -2.874964 0.61424595 1.6846867 0.11970922 1.1080264 1.5850935 2.4959865 -2.5457623 -0.50734943 0.28535214 -0.1297901 1.139155 -1.4198264 1.4566716 1.1894963 1.3987521 -0.1780971 -2.6647494 0.3528217
12 0.69063264 -3.799899 -4.3174615 1.953558 3.7227187 0.034501553 -2.18808 0.2947845 -4.8442183 -4.0366297 1.3448634 -0.92148155 1.0362991 -2.3798373 1.0824971 1.0479413 2.9298263 -0.24687122 4.8522267 0.35805488 0.2388119 -1.7719129 0.25633022 1.3753306 -0.6031831 1.9203863 1.9397149 -1.7520893 -3.8635478 -0.80582386 0.71614665 -0.4014244 4.003579 2.658668 0.7769639 -2.1616437 1.794262 -2.1714284 -2.3726273 0.3988607 -0.9239507 -2.577492 -2.0288627 3.3715124 1.9161377 -0.3504504 -0.97110057 -1.6152132 0.61093163 1.5737429 -3.249389 -4.513216 3.1731946 1.9617577 -3.1884215 2.5496318 -1.6073452 -2.3120935 -0.44604194 0.49096158 1.1901417 -1.0424849 0.7681353 -2.275543
16 1.1531079 -1.1775751 -0.043441504 -3.0472722 -0.86088043 1.7264316 -0.038536936 -3.1070166 1.0165299 1.8237813 -0.25321358 -4.3447227 -0.5329254 0.34929776 2.611885 2.7586193 -0.55233306 -4.2807612 -4.0090737 1.751464 -0.54140866 2.6037226 0.54653674 2.4627793 4.4854884 0.7116592 1.8233012 -1.6863178 1.2828093 -1.9692562 -4.644299 -2.759398 1.9699775 1.4793959 -3.8446922 0.11391244 -1.3095628 1.32873 -3.287724 -5.98656 -0.7597165 -1.4739894 3.0025578 -0.81849706 2.0451963 1.8426573 1.2351322 -1.4252688 -1.05644 -1.7649516 -0.56171924 -0.145463 0.6684042 -0.847841 0.5461369 -2.0730126 -2.6174572 2.006254 1.0540335 -3.7102861 -1.9621536 -1.3420988 4.451366 1.2220547
9 -0.12913111 -3.6259377 -1.9190756 2.6164517 4.9550085 1.4487864 -0.98646206 -0.04565797 -2.7689025 -3.9218595 0.39505163 -2.5129848 0.47640973 -2.1628916 -1.3509948 1.1929063 1.5480984 -0.14600609 2.8552332 0.7551098 0.9257131 -1.0594106 -0.37779257 2.1910462 -1.3352473 1.897269 2.582073 -0.49658197 -3.587687 -0.03386883 1.6471505 -2.6551344 2.5417984 4.4757113 1.5499709 -2.8923376 1.7697036 -3.1258183 -3.030171 0.09874224 -1.894084 -4.722075 -0.72685075 3.7466042 0.9451834 -2.3979173 1.6152515 -0.9556547 -0.03924437 0.123285726 -3.5780053 -3.8800013 1.8237953 2.1306226 -2.1289737 2.0873516 0.012783184 -0.26087576 -3.0249646 1.458097 0.080866486 -2.5245116 1.145227 -2.2316606
17 0.63982326 0.7008259 -1.16752 -3.3637745 -0.14005835 0.94751865 1.1832619 -0.6074395 1.7668532 -0.30799603 0.7960738 -3.1849246 0.46881709 1.204115 3.6792963 2.3165312 0.6040336 -4.0149784 -1.7808629 0.9596644 -2.7021005 1.0781525 -1.2606016 1.5808926 2.8188362 0.82889676 2.443236 -1.4542139 0.5785131 -1.846343 -4.3962107 -2.274391 -0.08026162 1.6957816 -3.9392102 1.7868634 -1.3536981 1.5455374 -3.9932513 -6.215237 -1.722449 1.0121973 2.244002 -3.0597432 3.9264753 3.087088 -0.7045905 -2.18619 1.3274314 -0.08190585 -0.6420789 -1.2859408 0.28935087 -0.35923794 3.8479683 0.28452483 -2.5639982 1.7087219 0.7418157 -2.5351021 -1.4141757 -2.4318352 4.8834276 0.56704193
8 -0.1144254 -3.749559 -2.48094 5.6618695 6.915376 2.395105 0.29000318 1.0510242 -3.236402 -1.6493722 -1.0732731 -0.44606248 2.872383 -2.4090075 -0.3556389 2.8348007 2.0282483 -0.3299919 2.4105582 -0.1699821 -0.44312173 -1.0958226 -0.22874288 -0.75723153 -0.7771873 0.6535464 0.93197006 -1.3346549 -4.851845 -1.3407228 3.117477 -0.40297994 2.8318214 4.2336154 0.5612695 -1.4661839 3.1854558 -2.0412335 -2.3611276 -1.0625708 1.0729706 -3.859504 -0.6969082 4.3032627 -0.4398526 -1.8907732 1.6834354 -0.95484954 -1.6305655 1.6714721 -3.6348987 -2.6053178 1.5420458 1.6813244 -1.0003538 0.31492147 -2.8514912 -1.4277263 -2.7613847 1.228491 0.31594065 -1.4437757 -1.4207453 -0.6594778
18 1.8361069 0.08068604 -1.8364327 -3.8959713 0.2576718 1.9529485 0.5658271 -0.89699006 2.561199 1.4659522 2.093883 -1.4547713 -0.782767 2.7666929 5.0867534 1.0118637 0.7393323 -4.527904 -4.4982867 2.0260231 -1.391855 1.5328386 -3.462311 -0.29483628 3.543159 0.33026683 1.3468665 -0.34753528 -0.05322776 -3.2167892 -5.238974 -2.5947623 1.0597665 0.15108334 -2.2896411 3.4547875 -2.083719 0.04996864 -3.8016646 -2.8371284 -2.3999412 1.087419 0.76367354 -1.6333991 3.044009 3.609794 0.92748785 -1.9461299 0.5978426 -0.38986307 -0.7356755 0.7804051 2.8518436 -1.3470558 0.24331565 -0.24970137 -2.2067447 2.677867 1.5979655 -0.0762597 -2.333975 -1.8211051 4.9510007 2.4516103
30 -1.481635 -2.1933346 4.7120504 1.3358577 1.727995 1.7965484 -2.313642 -0.32544404 0.13212894 -0.6829922 -3.6440368 -0.067344196 -2.062082 -0.14139353 -1.3390704 -0.43831122 -0.006819347 -1.4900025 1.5722318 0.012889847 0.081193246 5.7072377 3.3153179 -1.4987447 -1.2910289 -0.839673 -0.18084213 2.5081685 0.92593175 0.5871883 -2.967458 4.108213 0.7417693 3.2312696 -1.0271021 -4.759572 0.23789491 2.9020987 0.98766756 3.117029 0.12927842 1.3361977 -1.7702597 -5.9767866 -0.57673645 5.645796 -1.1547521 4.660808 -0.6729636 1.6641101 -3.1576228 -0.88455576 -0.4940299 -2.1824346 1.5317494 2.0524023 4.3426332 0.6891964 -1.9187193 1.79016 1.0011318 1.954266 2.2962747 -0.9738136
10 -0.21710628 -2.9120266 -1.99907 6.9343386 5.9396763 2.4942448 0.6441729 -0.07264181 -0.7846194 -1.8965912 -1.2539724 -0.5487488 1.9292285 -1.3214961 -0.79164904 0.87948495 -1.088839 0.39147514 2.1282344 -2.606442 -1.1504343 -1.2111216 -3.774672 -1.1888412 -1.4453739 -0.4090246 1.8243018 -1.2929491 -2.4602427 2.2854006 4.058651 -0.3094885 2.6538477 6.240188 -0.54962444 -0.82826465 1.9065307 -2.4246533 -1.4503977 -0.22786914 -0.33736646 -4.138576 0.39268976 4.364442 -2.4462314 -4.538914 1.5667856 -1.3546947 -0.54475075 0.8266415 -0.98307246 -2.0663273 0.6508665 0.512282 -1.1440543 -2.2160907 -1.2097955 -1.2831374 -4.5084815 3.472433 -0.268638 -3.2453675 -1.6790316 -1.1001375
33 -2.04387 -2.5128934 2.5544071 2.1372159 2.0760443 1.746798 -1.4020028 0.38045502 0.37432104 -1.273145 -3.8236423 -0.35679576 -2.9044807 -0.15603407 -2.2753582 -3.4358847 -2.2950826 0.41790962 0.11961813 -2.0951006 -1.2541997 5.267165 6.3018904 -0.31273884 -0.11280097 -0.06348555 -1.2592888 2.1959705 1.4408331 0.700991 -3.5561113 3.9941785 2.1168368 1.4842628 -0.010321063 -1.4794121 -0.70511746 1.9218198 3.9365387 1.682652 0.9169986 2.3297389 -2.4020784 -4.7809267 0.06108969 3.96271 1.0034024 4.3950686 -0.17299531 2.6130881 -1.737816 -2.963446 -0.6400614 -2.121519 1.2933326 0.052909493 2.8951404 -0.3371485 -1.4692189 2.2287962 1.3423102 2.9632795 2.3380752 -1.8463708
19 -0.13647741 -0.50793403 -0.25242576 -3.511929 -0.28138804 -0.82094127 -0.033037417 1.626112 2.0960455 0.8709799 1.6043591 -0.81727445 -2.0289295 3.8831282 5.650333 1.531928 0.84224594 -3.8429425 -4.62317 2.0946205 -1.3880525 -0.6987724 -4.2172375 -1.3434085 4.0479164 0.14174317 3.4169273 -1.529635 -0.40349084 -2.4474244 -2.9590895 -4.313081 -2.755471 -2.176398 -2.4804769 5.31725 -1.8328359 0.46549308 -1.3387226 -3.6840098 -4.042112 3.5704937 0.01708956 -4.4989514 4.1523347 2.4507391 1.3351876 -1.9257226 1.6945906 1.2108465 -0.6846861 0.76913404 1.3999662 0.38999635 1.9111683 0.64220005 -1.7707087 0.7542117 1.3944844 1.5059998 -1.0330284 -2.8892856 1.4535211 1.74758
28 2.1749911 -2.9225202 1.963682 0.9479821 -1.7736504 -1.6752456 -4.1321793 3.2224514 2.4168518 -1.0626225 4.3637505 1.5096357 0.11111745 -2.8675654 -5.004959 1.8266969 -1.1348655 0.45891988 -1.9686742 0.9647391 5.2356744 -0.33912054 -0.40886608 -0.50669307 -1.9191048 0.50587034 -3.699893 -3.5789406 3.8885179 2.0225124 -3.4286907 2.1219616 -1.4860411 -3.3534226 3.2578688 0.15253 4.803814 -0.12933007 -2.9587064 1.5360001 1.0820969 -0.9166178 0.45233488 0.73481905 1.7874646 -3.338815 -4.97978 -1.4556307 -1.1812519 0.78932434 3.7804184 4.0184174 -0.17662714 4.5712633 4.4056926 0.3891148 -0.045650627 -0.10805526 3.0243046 -0.12399115 -1.0600445 0.3700421 2.894237 0.68819803
6 1.7729697 2.892214 -2.1962245 -1.8442012 -1.155267 3.6379533 -0.9142482 -0.86986846 0.5672375 1.9854845 -2.8826766 -5.912784 -1.9566314 -0.6555716 0.7116002 1.4137231 -0.72205424 2.3338647 1.3203909 2.8536358 -1.3477952 -2.872982 -0.0077266935 3.4589484 -3.9481053 2.60447 -2.5341525 1.9968886 -0.758677 2.473809 -0.08731607 3.8460999 -1.0960901 -7.1804194 -3.8361752 0.96099526 -0.37595192 1.3099207 2.2473142 2.1923504 -4.773895 -0.70803446 2.6158216 2.9455178 -3.888081 3.06788 -1.0350995 -1.0716823 -0.09872777 1.5578681 0.19567373 0.106987305 -1.6002347 2.1671827 -0.9379383 2.6266859 0.8124071 -0.5590326 -2.1652937 -0.41268626 -2.2921798 5.310479 -3.9999917 2.4389424
34 -1.0239234 -0.1380286 2.7192652 4.3432245 1.6696405 1.3968191 -0.17942885 1.2115302 -1.4835227 0.88335544 -3.2438672 3.4035923 -0.44533974 1.3104999 -1.3984578 -1.1752324 -2.3058898 1.8773252 -0.24155374 -3.9077454 0.54891956 4.8968835 5.725167 -0.833379 -0.7016764 0.631395 -0.31636864 4.2684894 0.40954512 1.9843132 -3.5800016 2.3422527 1.9657972 1.6435844 -1.7675723 -3.8277054 -2.2446394 0.58482677 5.110677 1.1634456 -1.8061299 3.4051404 -3.393564 -4.7709 -1.2656783 3.318336 -0.41772 3.2467864 -1.5710398 1.0698394 0.24179223 -1.166666 -1.483139 -1.9715245 1.4445156 0.13195463 3.5470426 0.058578193 -0.699746 2.465948 -0.19533135 2.8480172 0.17303641 -2.0811481
13 -0.44575322 -1.110424 -0.88963306 5.4907346 7.3186765 3.172689 2.723951 -0.5574503 -2.1625214 0.39398497 -2.932216 2.6786165 2.6200438 -1.6476411 -1.741818 1.9187984 -0.47869214 1.0261365 1.7103435 -3.3684878 0.25203896 -3.0785997 -1.4660155 -2.2253087 -1.6525221 -2.1750708 0.29194823 -0.9136436 -3.1875556 0.9667501 5.1461186 0.18002616 1.714011 4.107169 -0.06318104 1.2011727 0.21222976 -2.3569386 -0.21808472 -0.5493407 1.9839216 -2.270968 -0.8516637 2.5640879 -2.7334385 -3.7092924 2.6736104 -0.21199605 -1.2918367 0.7559005 -0.3802429 0.731444 -0.8828209 -0.1430346 1.1752304 -3.2821174 -2.1841218 -0.11167229 -2.6673195 2.0765114 1.0292312 -1.9292094 -2.580046 0.61175144
2 0.42840195 3.0879803 3.4980853 -1.7852262 -3.7113116 -0.73911744 0.71661884 -2.238186 1.7725219 1.2051545 0.45680478 1.7677271 -1.065803 -1.6743437 -2.7772672 -1.4071529 2.9387434 2.4773111 1.3705553 -1.6832429 -0.7638858 0.17501229 -0.17057526 -2.9683006 -1.0525272 1.6664383 1.8384476 -1.3240407 2.7553327 -3.2350025 4.6187053 0.7710571 -4.7822776 -0.79222023 2.6187615 -0.12218203 1.9805099 2.0153296 -2.9217687 -2.979037 1.656891 1.8613557 -3.1434758 2.047314 2.5028362 -1.6060691 -3.407225 -0.7566311 -3.3111248 -3.7193239 1.8607062 -4.0551314 0.26152158 -2.8903213 -7.3089676 -1.0726318 0.18303843 -0.47443378 -4.130477 -2.7932706 1.9291446 3.4738 2.029388 1.6019897
23 -3.8385916 4.398853 3.6461725 0.35023397 -3.1485424 -3.5796456 0.7108785 2.5332525 0.8024647 -1.153259 -0.18428881 2.2465968 -0.98452014 0.6313632 2.52828 -6.918815 0.43002564 1.8033988 1.8421978 5.660372 1.1669472 -1.7252916 -0.3136372 0.056814242 0.39989164 -1.3312148 1.1441146 4.828271 1.4065362 -0.5633935 0.896427 -0.76460963 1.6929469 1.3164072 0.35344204 -1.4175512 -2.609879 2.5876389 -2.1239145 2.3813696 5.8144474 0.7324056 1.2481363 3.610045 -3.4064462 -0.37570265 2.874615 -1.6288594 3.1227648 -3.235792 1.1224133 1.2556269 0.5156307 3.4332473 2.694732 -0.20011029 -1.6946386 -0.58651376 3.478318 -2.7720659 -0.49571508 -0.12988223 -3.5000296 -0.106844604
22 -2.3247647 3.4656808 4.324833 0.3737285 -3.5609677 -3.874338 0.88979197 1.1108276 -0.23916188 -1.8318908 -1.7498736 2.3133843 -0.2538962 2.1572573 1.9397367 -5.1440935 -1.6833835 0.925502 0.26786667 3.318993 0.66531396 -2.3705423 0.01182604 1.2778946 -0.66881335 -2.1154313 0.008507117 2.0068986 0.15163939 -1.9747618 0.4747075 -1.4961135 1.1940111 0.9485052 0.44779408 -0.06718462 -1.1102005 0.4009937 -0.39368856 3.1025302 5.536367 1.7233976 1.5438237 2.5209892 -3.676046 -1.650362 1.1823118 -2.0972714 2.626919 -2.6514125 1.4503325 1.740335 1.3537905 0.09221368 1.8368183 1.8758394 -0.8583212 -0.24400418 2.6052427 -2.0588193 -0.020723406 -0.275098 -3.938051 0.99332976
24 -2.242753 3.0290418 4.005839 -0.21941711 -3.5096595 -3.751567 0.5267518 1.4290743 -0.36531335 -2.2309017 -2.347874 1.3084021 0.020105086 2.1063342 1.2384626 -4.8741684 -0.41211575 1.1161804 0.5872094 2.8949091 0.6357112 -0.7793912 -0.16086136 0.5224663 -0.23654237 -2.3532085 0.9225873 2.540327 0.8718965 -1.1543255 0.29434687 -1.4854369 0.5850369 0.6784953 0.86820644 0.053555742 -2.165369 -0.7657799 -0.9536005 2.9768307 5.5352135 1.3948163 1.0566765 3.622471 -3.4508128 -1.3912632 0.48889294 -2.0019464 3.6037142 -2.395107 0.97263616 2.3382232 0.779201 0.47636485 1.7923445 0.61210173 -1.1812309 -0.2807099 2.939469 -1.9024701 -0.12644295 0.023169154 -4.664985 1.2259456
35 3.165176 -1.5189784 -0.55124885 -1.2144418 -0.33017504 -2.3552942 -2.5752866 2.6340477 3.336186 0.3966206 2.855556 2.0525656 1.7215071 -1.0954119 -3.488856 1.4913996 -1.2137202 1.359701 -3.4782739 0.6277277 3.3953657 -1.1268866 -0.27022576 -1.5268183 -0.38374135 -1.4952439 -2.5746515 -4.350381 4.782538 3.2770152 -1.000006 0.8268418 -1.7929729 -4.3937025 4.3424373 -2.1849341 2.1056552 0.607272 -0.37949306 1.8888872 2.454043 -1.5468789 0.6858305 -0.8939533 0.9298742 -4.0160728 -4.144389 -0.561796 -0.013475766 0.91145 3.3347166 3.8810673 0.5594977 2.7707112 2.2724543 2.1382306 0.41548762 -0.00021384496 3.151661 -0.96147126 -0.16965652 -1.0233809 0.13002418 -1.2110412
5 -0.31486326 2.49603 -3.318807 -1.1411701 -2.9449928 1.5817919 -1.1419963 0.2255117 0.45303947 2.564915 -2.559917 -2.087476 -0.33852905 0.05286696 -0.21662432 0.023463305 -2.5568354 1.6512225 0.34896433 -0.9928665 -1.0779465 -2.9795268 -1.1192733 3.7139308 -3.355441 3.2090685 -2.0019777 3.0533016 -1.1260111 1.915368 1.1471952 2.184906 -1.8568219 -5.8577924 -3.597573 0.9922532 0.53929603 0.31633914 4.371329 2.0769477 -4.0001173 -2.8317947 2.5534062 1.1522698 -2.4338093 4.286904 -0.65306604 1.0836108 0.9446408 0.09668761 -1.0066061 1.7262315 -1.5843604 1.551377 -1.2704552 0.7989123 0.5128977 -1.7993057 0.3032653 -0.77533984 -0.4899606 4.055021 -3.8157923 3.1142921
20 0.460989 1.1912489 -2.374058 -2.2071912 -1.0960815 -1.4397887 0.46023583 0.36931044 2.6466775 1.9732653 2.8267648 2.0316315 0.41253403 3.4454513 4.9663863 0.83601165 0.25754538 -2.2831256 -4.5576534 2.7258797 -2.6745162 0.9087709 -2.6436005 -1.9024496 4.0425887 0.666192 0.9941841 -0.12062171 -1.6288329 -2.2023718 -1.5789367 -3.6548233 -2.7405376 -3.3902836 -1.333285 6.7969055 -2.8022597 -1.2974217 0.087064095 1.473252 -2.4695184 2.5199454 -0.015233889 -3.4475725 2.9646246 1.7937921 1.153696 -0.9474975 2.4654717 0.46272787 0.41711697 2.6210544 2.9693978 0.32263878 0.078681506 -0.06306839 -0.19372796 2.6616495 0.898505 3.6596813 -1.3989813 -3.8776221 1.1707556 2.250286
1 0.81732243 3.8513775 2.7918928 -1.823157 -4.6018853 -1.5579976 -0.17700231 -2.5630708 1.1945047 0.07086952 0.54727006 0.73283434 0.7121322 -0.7488526 -2.2435653 -1.4743986 4.2256465 0.18047659 0.8763889 -2.4057465 -0.55071175 -1.55352 -0.4775624 -3.8786829 -1.361855 -0.12971799 0.67088735 -2.2013924 0.069401816 -2.3875587 4.186822 1.1378042 -4.882316 -0.5278132 4.283595 -0.43242 -0.08582893 1.942812 1.1435176 -1.1954488 1.0273063 2.933343 -1.9796228 1.9015704 0.6896395 -3.3980293 -1.829893 -0.6248938 -4.231254 -2.8282397 1.4290987 -2.5088868 -0.46601623 -2.8748934 -5.1100187 -4.17219 0.29480824 -0.538942 -1.6812464 -2.5637238 1.5184553 2.4984975 1.9004005 -0.52163893
15 -0.04843121 0.62225264 -1.6480484 -2.974602 -0.51331043 0.100878984 1.3585694 -1.5630375 0.35621253 -0.3659653 -0.08819978 -3.6400795 1.7835102 -1.0969299 1.8971205 3.4796252 0.027323252 -3.6179194 -0.8640822 1.6742547 -1.9647707 3.046971 1.5723658 2.3360302 3.2860131 0.714905 1.7671028 -0.7621644 1.4578273 -0.28077954 -3.69125 -1.1932092 1.5849624 4.003186 -3.4810603 1.8975829 -1.1220735 1.0340575 -3.5014791 -6.4177566 -1.4463017 -0.24264705 4.4172745 -1.0779672 2.51921 2.5529828 0.025519518 -0.2813976 -0.011327967 0.113178834 -0.92891586 -0.7002454 0.37232444 -1.287524 3.0640104 -0.26749042 -2.1244996 3.3578172 -0.082449816 -4.56504 -2.3227763 -2.7458537 5.057198 -0.21661353
11 -0.47802117 -4.1874766 -2.186477 0.08756703 4.544704 -0.109328784 -0.7114993 -1.493959 -5.1914473 -2.5813344 2.2197888 -3.1960285 -0.65845025 -2.648775 -0.5350866 0.5753541 2.4724793 0.47326413 4.2203627 2.0280416 2.3217373 -0.6059959 0.5244797 3.5590203 -0.42188516 1.6916722 1.5325239 -0.2566505 -4.3763003 -0.27073228 0.3257867 -3.0706575 2.9323049 3.9861605 1.6625845 -3.0383816 0.16065788 -2.5098422 -2.484576 -0.093141355 -1.5424563 -3.9121032 -2.9251122 0.9988532 1.9078724 -0.048522 1.226494 -1.4688325 0.39917955 0.08997511 -3.4816287 -3.967485 2.7726595 1.2731603 -2.011307 2.855948 -0.074668966 -0.7277975 -1.179387 0.6240731 1.073548 -2.062924 2.3650122 -1.6142826
32 -0.8051754 -4.7598114 2.6717603 -1.689538 1.7086097 2.8519075 -2.415667 0.69899493 0.5006287 -1.809121 -2.937621 -1.718321 -4.115861 0.7299472 -2.5796075 -2.265613 -0.29629835 -0.69887024 1.3692901 0.27527824 -0.7007263 6.434696 5.243214 -1.0781038 -0.9612561 0.19944616 -1.2697955 2.197125 1.7809029 -1.2590203 -2.8909795 3.9087584 2.5196853 3.7423377 -1.4781456 -1.9151185 1.8157231 3.6693032 1.9630152 2.855865 1.3395319 1.4727762 -1.2527117 -4.404948 0.9099549 4.4533525 -0.13458076 3.1598027 -0.7633079 2.2158244 -3.3157227 -2.036572 0.442487 -1.5349534 1.7732961 0.16559097 4.476835 0.4458789 -1.6818088 0.7791839 2.5633974 0.4410948 2.3747456 -2.4681225
27 2.6662047 -3.3410988 0.71289736 -1.0873201 -0.02509848 -0.8982331 -5.6516013 2.0726361 3.698146 -1.588317 2.8398397 1.0823879 1.8140255 -2.4904406 -4.3704915 2.0299692 -2.0557585 0.8427227 -2.067941 1.6665064 4.192341 -0.3582238 0.03653122 -1.5461162 -1.1506181 0.121863075 -2.57724 -4.830669 5.16133 3.6212885 -3.4480677 1.5283555 -0.27187425 -3.7793767 4.087609 -2.440648 3.553037 1.4219398 -3.2602031 0.60422295 2.8890374 -3.0546987 -0.29863042 -0.75791305 2.2817895 -2.8405778 -5.5113044 -1.7048969 -1.152425 0.7805001 2.3109734 3.2954638 1.4332792 4.1499434 3.1028583 2.7494457 -0.12874201 -0.40698606 3.0422134 -1.7175498 -2.2291644 0.031013614 1.5538427 -1.4441316
7 0.17535685 1.9459189 -4.107047 -1.6915736 -2.029126 2.8895054 -2.094229 -0.71498317 0.850719 1.4570644 -4.207961 -5.0097146 -1.7069229 -1.8184259 0.08434856 0.57547134 -0.86383295 1.5898428 0.87356204 1.5177668 -0.2585758 -3.308133 -0.7483873 4.509633 -4.7040405 2.4450889 -1.4036555 1.7077026 -0.8386546 1.5874784 -0.13249137 2.9716468 -1.4017383 -6.0322556 -4.987641 -0.49348247 1.9244685 1.396815 3.272949 1.9979432 -4.9164805 -3.0843163 3.199316 2.2669976 -1.857268 5.784089 -2.8430643 -0.071864046 0.5817433 -0.5268336 -1.8712662 0.020624194 -0.19827555 2.4454873 -1.3998294 0.9051893 -0.9618258 -0.35226813 -0.85145986 -1.3768533 -0.94956505 5.6533756 -2.5463004 2.9976673
3 2.287354 3.5664346 3.2363534 -1.7699142 -4.406956 -0.4302828 -1.4804947 -3.2133071 0.8463209 -0.7437291 1.1536434 -0.6640156 -0.07451266 -2.4161687 -1.1512201 -1.3770174 4.105396 -1.1201088 0.9677162 -2.0723069 -0.12740184 0.058128923 0.49290836 -3.5634077 -0.917993 2.6777375 2.3752167 -0.8137329 1.4391214 -3.7077534 3.387024 2.4654083 -5.2466135 0.38698563 2.9972355 -0.6691591 0.6915234 3.1540635 -1.5475166 -2.1939266 1.993806 2.592433 -2.7079432 1.6014618 1.7068596 -3.118711 -2.494405 -0.65112436 -4.3324146 -4.08665 0.08769303 -4.4216847 0.88532054 -2.2283227 -6.627392 -2.1279168 0.601999 -1.7496965 -2.9943902 -3.6350157 1.3143153 3.4485586 3.1961892 1.1376595
