36 64
25 -0.34441775 -0.64157885 -0.7380288 0.6492068 0.25429478 0.3572263 0.66697234 0.46890667 -0.010750037 0.21601813 -0.36861277 0.1330184 0.10362731 -0.38004133 0.3050289 0.10824314 0.55117524 0.09055932 -0.06474192 -0.12323909 0.3623527 0.5266183 -0.33196792 -0.3157561 0.9378691 -1.0008352 0.96181184 0.8744042 0.7652934 0.38565058 0.28063846 -0.06616082 2.1793113 0.08647862 -1.02892 0.16104904 0.0020531076 -0.759872 -1.1357327 -0.34782776 -0.1875124 -0.82907695 -0.33183014 0.8234011 0.01858647 0.77799207 0.4066545 0.72902054 0.020722654 0.3062322 -0.5362643 -0.077147104 -0.3359715 -0.3114554 -1.0350153 -1.5262662 -0.38056827 0.20935172 0.12120378 -0.009248989 -0.35080767 1.1311466 -0.04188261 -0.72009736
29 0.21450254 -0.4974569 -1.534581 0.15890351 0.67618763 0.58812666 0.44057724 0.056487482 0.6739284 -0.30733407 -0.13788502 0.23408693 0.5028413 0.47936764 0.17133853 0.08975592 0.15725742 0.8248002 0.75631386 0.4532129 0.22885536 0.3563189 -0.5964204 -0.73799115 0.29427767 -0.86388457 0.4017462 0.10343468 0.7127332 1.3482338 0.74771416 0.19246608 2.0619926 0.13787043 -1.1420215 -0.5477105 -0.18775746 -0.2985062 -0.2045489 -0.17623524 -0.50551164 -0.42233866 0.36789483 0.6050083 -0.5527699 -0.40784672 -0.24212879 -0.33346444 -0.34442526 0.26421335 -0.36326715 -0.74983907 -0.18272023 -0.381506 -1.2009845 -0.9128867 0.021750437 -0.3289586 0.018440727 -0.87993133 -0.4239102 0.3279173 -0.9545362 -1.7554706
4 -0.69286597 0.53041667 0.101031415 0.5488667 0.36777127 -0.22418728 0.11651368 -0.22238266 0.9534921 0.13273944 0.19590916 0.52887493 1.3953933 -0.5228526 0.0006264097 -0.12896484 0.5590056 0.7281712 0.03772654 1.3805934 -0.28496853 0.18133381 -0.3403729 -0.4023346 0.1237496 -1.0558821 0.62416583 0.8944227 -0.07310802 0.20702994 0.5655773 0.19968632 0.89117116 0.8597432 -0.3073629 -1.4289575 -0.35729417 -1.7120425 -0.37350968 0.59678006 0.12263321 0.45870638 0.42060176 0.93316925 0.03692144 0.7776144 0.39281344 0.8156449 0.03941986 0.056096733 -1.5117018 -0.31290293 -0.096764676 -1.1390908 -1.3704002 0.030041764 -1.2813183 0.50429827 1.0910285 -0.6754278 0.13036163 0.9051505 -0.013674899 0.18478276
14 -1.4736419 0.3996176 -0.7052444 0.36110964 -0.4936011 0.17591886 0.4739447 -0.62932223 0.22225705 0.19434099 0.4099848 1.0426711 1.0608057 -1.2745184 0.12863179 -0.4833275 0.26514262 0.55036 0.82434106 -0.52554995 -0.35173523 0.99362785 -0.72219074 -0.36929405 0.64298886 -0.4103889 0.3372083 0.59215695 0.54642165 0.6119232 -0.3011363 0.20924464 0.81143904 -0.28034768 -0.20281945 0.56686884 -1.1198732 -0.28946397 0.126987 -0.9549916 0.5542789 -0.19851735 -0.72900605 0.5327969 0.48894772 0.6421611 -1.1671628 0.23110217 -0.12503731 -0.78721184 0.37693495 -0.007318245 0.48838535 -0.8448886 -1.1997957 -1.3410513 -1.1350722 0.4218743 0.30728298 -0.75249875 -0.48083663 1.1301606 0.08258115 0.18887249
21 -0.19557564 -1.0376195 -0.420192 0.37626448 1.036443 0.1624315 0.45286924 0.5393079 0.47317326 0.26593566 -0.5399258 0.4715779 -0.29082468 0.16003259 -0.33800474 0.34822583 0.80646914 0.17663014 -0.100706585 0.6344342 0.62001336 0.04988866 -0.559104 -0.53257257 0.29883936 -0.95849264 0.09246772 0.66138417 0.017408399 -0.26864082 0.9174169 -0.55169666 2.1678922 1.7203965 -0.10326728 -0.50495285 0.37157017 -1.641175 -0.344218 -0.07255108 -0.24625963 -0.39906725 0.9177624 0.9811719 -0.94655657 0.111967385 1.6647682 0.6136024 -0.5696549 -0.3532752 -0.65624154 -0.47237095 -0.52087146 -0.6908498 -0.35347205 -0.7990689 -0.5280739 -0.4789347 0.4113556 -0.6828122 0.23059255 0.20830195 -0.35083967 -0.42425525
0 -0.12816587 -0.38490823 -0.8486569 0.2928996 0.069389075 0.76780546 1.4168391 0.8470111 -0.28746724 0.16601756 0.46616066 0.050552208 -0.01013248 0.010323607 1.0962505 0.2699188 0.5429028 -0.34987122 0.06119983 -0.08846903 -0.2795583 0.94684887 -1.2471116 -0.80817354 0.49283326 -0.8431921 0.5754029 0.8522335 1.1052611 1.2079849 0.11544595 0.11883399 0.90820444 -0.59508586 -1.0273737 0.471102 -0.5320629 0.42333513 -0.45325065 -0.81320125 0.21964025 -0.5105859 0.7297837 0.67291504 -0.18704845 0.09709295 -0.36736616 0.10581399 0.40291116 -0.53523046 0.62361664 -0.59064233 -0.3095205 -0.60703826 -0.5328644 -1.5618165 -0.3874323 0.122471705 -0.090617314 -0.39774644 -0.71219873 0.7801611 -0.8138829 -0.87108076
31 -1.4848785 1.029622 0.27019635 0.3521653 -0.016664632 -0.5737214 -0.10515216 0.44433883 0.11738636 0.5240257 0.9913167 0.9845691 1.1552337 -1.4150169 0.27566946 -0.7304571 0.1784787 1.068601 -0.25062504 1.4699912 -0.37412944 0.40459663 -0.8314164 -0.42178553 -0.6205419 -0.45698535 -0.6577619 1.080149 -0.35516492 0.70328224 -0.69187135 0.35608724 0.17406599 0.060402956 0.95739776 0.29912192 -1.0397439 -1.0189421 -0.36932996 0.0864769 -0.5051806 0.9598419 -0.4372592 1.2443843 0.38537782 1.3863318 -0.26098174 1.1486324 0.31079334 -0.06705673 -0.11156049 0.58344513 1.0034086 -1.3822654 -0.87999946 0.04481469 -1.4201293 1.7603536 0.6494323 0.056888316 -1.0573784 1.2383192 0.1368919 0.7572931
26 -0.62532264 -0.31066096 -0.33674848 -0.20005068 0.095987275 -0.5957072 0.3303186 -0.46441105 -0.56013435 -0.09047186 0.7474728 0.47726652 0.36144823 -0.5741403 0.32864034 -0.40401644 0.31329188 0.61590016 0.71956086 0.7401573 0.27169162 0.6287018 -1.07309 0.09865433 0.44790787 -0.9923112 0.043123554 1.0324323 0.1559165 1.1235178 0.15246716 -0.2104655 1.4914106 0.35619625 -0.37640473 -0.3445619 -0.78640133 -1.2827053 -0.18196002 -0.26595306 -0.39375433 0.37562448 0.101923235 0.8008303 -0.112610735 0.028299233 -0.38810584 0.42360938 0.7687231 -0.58688295 -0.66814274 -0.2258731 -0.15642904 -1.2922282 -1.0175397 -0.912921 -1.2502942 0.49452767 0.4233067 -0.3421171 -0.5598752 0.81234074 -0.63778394 -0.40615135
12 -0.20288746 -1.2275765 -0.17274304 -0.602983 -1.4375534 -0.5903481 -0.697249 0.07962597 -0.07861597 0.49492142 0.9309985 -0.08144013 -0.47802815 0.20180851 -1.804213 -0.8543796 -0.013770586 1.0067704 -0.29663128 -1.5550665 -0.48788863 -0.177534 0.8537033 2.1644924 -0.5297324 1.2596014 -0.23787308 -1.7905663 0.7653619 -1.8320241 -1.3708589 -1.0843315 -1.841923 -1.1304663 0.15901212 0.9646925 2.1530824 -0.621346 2.3472717 -0.3028829 0.4058723 0.13723865 -0.6953018 -0.5060331 1.8198371 -0.915425 -1.6319429 -1.5038903 0.6778987 0.17334239 0.626983 -0.22341734 -0.1080298 0.91203123 0.8014395 0.89415574 0.62233627 -1.345968 0.23746464 1.2316982 1.338753 -0.29299712 -0.5203863 1.0796407
16 0.13125886 -0.8188469 2.0258963 0.3521829 0.90925455 -1.4328136 -0.018478198 -1.0902599 -1.2862121 -0.56439936 -0.22693643 -0.48944038 -0.67187434 0.47483814 -0.15534915 1.3874637 -1.1084628 -0.5947979 0.39053303 1.0618943 1.4050165 0.32955915 1.7000206 -0.84213084 1.1100762 1.1709803 -1.050163 0.18132162 -1.4508945 -0.012585859 1.0901102 -0.4470501 -1.4538414 0.19980973 1.2783885 -0.21142861 0.25829792 1.3764666 0.46850744 0.17017901 0.41110325 0.36624166 -0.29088238 -1.6166139 -0.68131495 -1.1502085 2.1856914 -0.54174924 -0.87895167 0.2686744 0.24983042 0.16145837 -0.5919741 1.3168262 1.4492087 0.47312132 0.6993229 -0.8141411 -1.5491986 0.5832502 -0.11469502 -2.6210253 -0.56636727 -0.4718152
17 0.64399636 -0.8977144 2.4381657 0.04885181 0.8144538 -0.5407508 -0.38194218 -0.6463853 -1.0281736 0.055435624 -0.28559554 -0.52866507 -0.680627 0.29263037 -1.1447688 0.42456952 -0.3930843 -0.6223319 -0.3886806 0.59884024 1.0271485 0.07564563 1.5160024 -0.8750756 0.35821834 1.4707758 -1.3985536 0.2824443 -2.2424214 -0.5274028 1.5421569 -0.21440071 -1.0340154 1.1249187 1.377835 -1.0863252 0.55451417 0.4974003 0.25520754 0.28593373 0.055839658 -0.05683559 -0.10304497 -0.5118634 -1.2276456 -1.0336138 2.5349667 -0.3943054 -1.5244592 0.23036183 0.45322427 0.45781788 -1.1881922 1.1820414 1.0135313 0.013252035 0.92909074 -1.2205185 -0.9201799 0.22729778 0.7398304 -2.272439 -0.17330575 0.28250614
9 -0.43363047 -0.46568865 0.3785903 -0.15759599 -1.9714046 -0.7511641 -0.11194198 -0.61654055 -0.25119233 0.69565433 0.9303046 0.041564763 -0.24204063 -0.9825273 -1.9355625 -0.8955136 0.10125317 0.57352644 -0.09054391 -1.7428664 -0.3756039 0.7010477 0.4834228 2.3398917 -0.34298867 0.90688896 -0.45277712 -1.1048205 0.68572575 -1.440317 -1.0742961 -0.76931155 -1.7108654 -0.76004535 -0.4354403 1.3238766 1.7323469 -0.5268482 1.7454016 0.05831774 1.2153972 -0.6908298 -0.74585867 -1.1893928 1.1922258 -0.74482465 -2.0349994 -0.8544194 0.8643909 -0.9298204 1.1168396 0.671938 -0.2737109 0.82572836 0.8150717 -0.020439992 1.1649543 -0.8277103 -0.3020593 1.3268745 0.9494914 0.098472886 -0.026667804 1.5430536
18 0.3787607 -1.2405728 1.1928217 0.64003074 1.8006846 0.048745517 -0.66580653 -0.34262344 0.1727106 -0.42880687 -0.7149526 -1.0118507 -0.7259088 -0.1523073 -1.8129864 0.40444547 -0.07152684 -0.7792804 0.21747345 0.55496156 1.4683832 -0.36244068 1.4794014 -1.0863081 -0.2474667 1.3967441 -1.3715045 0.09883552 -2.098691 -0.88747156 1.8137436 -0.0733295 -0.56011647 1.9391819 1.3775219 -0.12086893 0.4317054 0.27219296 0.7087653 -0.4535354 -0.6524971 -0.088838935 -0.17387864 -0.65994704 -0.9220575 -1.1838117 2.9809322 0.38410765 -2.1772609 0.2057775 -0.15286708 -0.253769 -0.70164484 1.177913 0.97699153 -0.8747358 0.6010324 -0.97118783 -1.1590456 -0.43944114 0.38545358 -1.6603252 0.6614833 -0.32051867
8 -0.13393103 -0.2622288 -0.2817708 -0.3380621 -1.4655738 -0.28138795 -0.06947031 -0.9181666 -0.4566972 0.87942004 1.0259614 0.2973963 -0.07643888 -1.3409661 -1.5019839 -0.9366106 0.23440132 0.66358554 0.7694659 -1.5680652 -0.050753497 0.31612316 0.49844033 2.0225325 -0.043176517 0.95994765 -0.39348415 -1.2729565 0.32737294 -1.5761582 -0.55675715 -0.42489892 -1.4469384 -0.50515664 -0.7030756 1.8791283 0.35541853 -0.5790201 1.2646852 -0.6589535 1.2510812 0.28684384 -1.5980613 -1.1394639 0.49214765 -1.0660617 -2.7313812 -0.8044136 0.4043161 -1.200308 1.3783325 0.33016783 0.45167795 0.41716546 0.16886204 -0.29267433 0.059043948 -1.0865638 -0.18547578 0.5365931 1.3923907 1.0630702 0.5554844 2.567355
30 -0.090142705 1.5612643 1.3637018 -0.31809244 -0.50516796 -1.0508333 -0.87444437 2.564769 -0.14577891 -0.4016678 -0.5320478 0.54430664 -0.09077253 -0.56123763 0.4062411 -1.4194409 -0.09259127 1.1728853 -0.7620724 1.6782044 0.6383383 -1.398304 1.0350546 -1.0256879 -0.84706074 0.5509635 -1.2034295 0.4785299 0.7905336 -0.57099986 -1.3820167 1.5802068 -1.2211865 -1.4224019 1.5353941 0.99214536 -0.09194897 1.874017 0.17144036 0.31260264 -0.23740546 1.388625 0.008424083 0.5525982 0.71731704 1.4973427 -0.4258608 -0.022164073 -0.037747517 1.0417116 -0.4411328 1.3239821 1.5456496 1.1681421 1.4840133 1.6007078 -0.98541635 1.8054998 0.7119726 -1.0377911 -0.73478 0.5190995 0.49403957 0.8198358
10 -1.0814422 0.093348406 -0.07905553 -0.06532906 -1.8664072 -0.5349847 0.05087831 -1.8592964 -0.33525923 0.68906146 0.8501157 0.9197839 0.2191236 -2.3588524 -1.3702016 -1.0490624 0.48876548 0.40498635 1.2781814 -1.9324312 0.22096895 1.3096191 -0.11863073 1.8521683 0.55510706 0.39431316 -0.49228874 -0.43455833 0.6887119 -0.87801045 -0.89464587 -0.3334676 -0.32647064 -0.010909766 -0.49838114 1.6520747 -0.5800057 -0.5466855 1.3149353 -0.81268233 1.7825111 -0.6871974 -1.4937097 -1.393782 0.1440093 -0.63077754 -2.892802 -0.1987948 0.0889763 -2.3066869 1.7364576 0.5472063 0.6132233 -0.05807068 -0.21968627 -1.0041771 -0.18191198 -0.980093 -0.25063246 0.01799105 0.6374362 1.3614274 0.7116834 2.1798007
33 -0.8247296 1.6807612 1.0489633 -0.13003044 0.24011964 -0.7990233 -0.8732827 2.1877873 0.572275 0.13856767 -0.019998591 0.80132616 0.9394174 -1.0034459 0.37294018 -1.0953794 -0.79101795 1.3082165 -0.97349715 1.550595 0.13957587 -0.9199623 0.22045548 -0.94905066 -1.4725484 0.23896924 -0.7158581 0.8773787 -0.06305852 0.58176595 -0.9735888 0.9136257 -0.95712954 -0.785881 1.754164 0.9918224 -1.1139466 0.77550197 0.018305078 0.2311836 -1.005588 1.1648805 -0.87597555 0.6599445 0.69828385 2.0087163 0.4163371 0.43964428 0.0564948 1.1618321 0.16230237 1.7614752 1.6221656 0.19870305 0.947212 1.4200193 -0.8396956 2.3824544 0.74488944 -0.2952831 -1.243276 0.85077184 0.5575714 1.0242085
6 1.038924 0.82739383 1.672453 1.0058765 -0.60173863 0.14490758 -0.1572639 -0.44569674 0.57336783 -0.27254754 0.67444074 -1.053895 1.122731 1.4312642 1.1289909 0.59592664 0.644035 -1.1203216 -0.19840418 1.2963601 -0.6611173 0.47510958 0.22687788 0.9842972 0.1652084 -0.11236549 1.0244014 0.25873378 -0.7986045 -1.571573 0.100219324 -0.62521875 -0.71555483 -1.0415379 -0.3910304 -2.5514889 -0.95215917 -1.1882571 0.07719045 1.8236852 0.12858409 0.6657337 0.90912324 -0.8761922 0.25214443 0.4309592 -0.49377823 1.9670948 0.5150367 0.3916288 -2.5250392 -0.42988107 -0.23974396 -0.9253488 -1.3397933 2.1961615 -1.0930481 -0.54269433 2.037325 0.18653665 1.21084 0.9116548 -0.17572841 0.9537964
28 2.5496197 -0.014977309 -2.2376611 -1.117352 0.2781172 -0.06598436 -0.72981757 -0.093481444 0.81505513 -0.69489634 -0.04546116 -0.094811425 0.37712565 1.6830218 0.48769414 1.5436594 -0.7622176 1.3668603 0.6338216 0.66844475 1.8415895 0.093398355 -0.22531147 0.050172813 -0.77983034 -0.8090546 -0.43522495 -2.1846862 -0.035995737 2.3449879 -0.30436084 -0.29600027 2.339046 -0.0954671 -1.145389 -0.9837945 0.47638988 0.30773717 0.29309174 -0.2539104 -2.3622456 0.5398776 0.1958738 -1.0075173 -1.1684383 -0.818857 -2.230393 -1.5174458 0.0069865817 0.0584098 0.7279032 0.1277014 0.27294248 0.06919278 -0.14374758 1.6068058 1.0077529 -0.02207961 -0.2984449 -0.9210959 -1.1960047 -0.17177016 -0.8980032 -2.1130102
19 0.5053415 -1.2700876 0.91171795 0.3357032 1.7174512 0.60258377 -0.18758194 0.23573142 0.38998902 0.3232038 -0.94507617 -0.07638897 -0.7643681 0.07902132 -1.8307914 0.34438518 0.530632 -0.67660093 -0.38275075 0.21859397 1.045039 -0.5569145 0.7453597 -1.0317702 -0.29550168 0.64081204 -1.2432209 0.2981741 -1.8901845 -1.2665339 2.0233114 -0.42582992 0.7576133 2.6533217 0.96967137 -0.61071706 0.7041582 -1.012166 0.19915111 -0.5170316 -0.35712954 -0.437331 0.5681368 0.25992563 -1.9454715 -0.8164375 3.2832377 0.51315796 -2.2219133 -0.30157205 0.38719773 -0.24237087 -1.3571396 0.44337156 0.7910656 -0.8895642 0.5120414 -1.5663822 -0.3742409 -0.8625735 0.9349237 -0.97474444 0.20625804 0.24049953
34 -1.6456312 1.8429458 0.7524882 0.6856346 -0.26689604 -0.7368951 -0.27234405 1.1215634 0.41871914 0.33314064 0.28090313 1.0349593 1.252673 -1.6838189 0.3439828 -0.7800903 0.2785795 1.3190228 -0.6134052 1.8328812 -0.5180584 -0.3413715 -0.12484372 -1.3117619 -0.8115924 -0.34706855 -1.0243111 0.52239835 -0.2859826 0.23758185 -1.175677 1.400967 -0.6117746 -0.53197193 1.7688223 0.54627424 -0.074961826 0.3670676 -0.37414 -0.17069843 -0.39699808 1.387002 -0.0905938 1.2038615 1.1533761 2.2239373 -0.17360002 0.63015294 -0.07771885 1.0581611 0.110943586 1.1965036 1.3285187 -0.49431732 0.3549922 0.30497545 -1.4810714 2.659268 0.74111885 -0.46454108 -1.4068034 0.4501138 0.8716909 0.41325697
5 0.028511206 0.5344802 0.6875468 0.99002707 -0.25069597 -0.38046968 0.26589185 -0.24372703 -0.33758673 0.110462286 0.5709229 -0.12893903 0.45625013 0.9178266 0.96503884 0.23500828 0.6677275 -0.28081053 -0.28334382 1.1286328 -0.27954867 0.54604274 -0.22865665 1.0206327 0.36538926 -0.52195317 0.73164576 0.75858516 -1.0388668 -0.7366769 0.4684518 -0.06538426 0.40797317 0.13653488 -0.24361256 -2.2051651 -0.26413143 -1.7260149 0.18666886 1.6351409 -0.31004658 0.73838174 1.164232 0.49292654 0.026899302 0.4604515 -0.036270034 2.5083027 0.8648344 0.3677005 -2.4465122 -0.2044664 0.7270422 -1.471872 -1.7381258 1.5630301 -0.8580128 0.19192089 1.5226295 0.26131663 1.2842923 0.4028845 -0.18130505 0.9999495
35 1.7983323 -0.74716055 -1.6238818 -0.9836866 0.32460588 -0.30133405 -0.24482754 0.38682753 0.6201984 -0.66704595 -0.19412415 0.18506472 0.16070029 1.2393154 0.13779959 0.7788268 0.33763593 0.9220774 0.72082597 0.033167005 1.6098869 -0.25526786 -0.9899742 -0.7564544 -0.14558592 -1.7763461 -0.31345287 -1.2090648 0.4496093 1.6025159 0.16040745 -0.22547373 2.5833783 0.082510136 -0.71266156 -0.5607584 -0.08908834 -0.0547988 0.22124535 -0.385083 -1.912056 0.355205 0.33185035 -0.3927096 -0.7868446 -0.8971363 -1.7103744 -1.0981694 0.059981436 0.019909361 0.110466495 0.28706282 -0.25337663 -0.5688737 0.16065055 0.29145536 0.11721321 0.3148936 -0.0019888496 -0.6538657 -0.99882257 -0.12932462 -1.0040623 -2.397219
13 -0.66361856 0.09121813 -0.75306433 -0.5648258 -1.0592432 0.07065478 0.35127884 -1.3332573 -0.79122317 0.9145551 1.0499576 0.33593425 0.2775174 -1.8251489 -0.68341315 -0.9610661 0.4444131 0.34904048 1.4031549 -0.8173463 0.12861757 1.3115833 -0.5065945 0.9688489 0.36001018 0.3572585 -0.8321485 0.2609242 0.39132172 -0.1767894 -0.47270206 -0.123572536 -0.32591075 -0.33016628 -0.88033134 1.9707931 -1.2086893 -0.3027597 0.19019897 -1.3081923 0.8056872 0.147026 -1.6897944 -0.473171 -0.21259557 -0.34598127 -2.5225177 -0.03858169 -0.037111547 -1.7304208 0.79899925 0.3010597 0.25576627 -0.6439764 -0.9996248 -1.3778516 -1.0683497 -0.3896619 -0.37840554 -0.18146166 -0.013365708 2.2332218 0.018279187 2.0888696
20 0.20931394 -1.1799743 -0.3821913 0.90414363 2.1149132 0.60798246 -0.27450448 0.37343058 1.0422893 0.46817824 -1.1324176 -0.50847304 -0.45037133 -0.57123345 -1.7760931 -0.2731829 1.2675073 0.076236606 0.11050086 0.89905846 0.8722294 -0.6819249 0.54386574 -1.032712 -0.28735417 -0.10335631 -0.9976973 0.48597902 -0.7145926 -0.99964184 1.7905343 0.37905487 1.0783819 2.783758 0.09092829 -0.3823391 0.5179017 -1.0498208 0.22585444 -0.05360125 -0.35322565 -0.45666018 0.6515892 0.3435853 -1.720328 -0.84481776 2.4360328 0.85466594 -2.3074214 0.18464953 -0.6136894 -1.0792542 -0.4145138 0.41776937 -0.0369162 -1.4412922 0.034409612 -1.365449 -0.5776793 -0.78868747 0.7043313 -0.24432129 0.38258263 -0.43330562
24 -0.09233096 -0.63344955 -0.46199265 0.7310782 0.40769324 0.16884899 0.69623965 0.35221612 0.5768742 -0.512558 -1.4505585 0.06589729 0.57454455 -0.0026442846 0.70036674 2.079243 -1.1084611 -0.39537787 -0.7240171 -0.77838266 0.62019414 1.2842331 0.31057808 -0.16649194 1.1671903 -0.1883293 2.767877 -0.18196535 0.7291138 0.573903 0.39505553 -0.58322674 1.9976592 -0.11650003 -0.88868177 0.33721933 1.0659003 -0.7795063 -1.8369043 -0.58373016 0.20601079 -1.7190034 -0.58924633 1.0512233 0.9264322 1.9148785 0.8581637 -0.95334136 0.65292275 0.6395493 -0.22146954 0.716608 -0.23927453 0.28312814 -0.94580185 -0.18059576 -0.036307886 0.106807254 0.013887416 -0.49837586 -0.10543022 0.6312086 0.74813163 0.5091004
2 0.5023191 0.46733955 -0.78020954 0.83908594 0.5147247 1.2137188 2.039164 1.8485236 -0.75098526 -0.035888474 1.5236722 -1.0016361 0.1493278 -0.085525766 1.7060257 0.41714206 0.37217933 -1.7743794 -0.31831867 -0.6155198 -1.6115278 0.5731347 -1.1302125 -0.57549226 -0.48842523 -0.24691178 0.49782825 0.93273884 0.8586894 1.7300211 -0.18506686 1.4159461 -1.7127444 -1.350538 -1.3055915 0.43556315 -0.48236072 1.4052578 0.93332124 -0.26472577 0.6042385 -0.48622516 2.8259673 -0.27679095 -0.6676713 -0.05389025 -0.009900202 0.23595268 1.2921547 -0.10816017 2.062383 -1.6808397 -0.4500918 -0.07736464 1.1625708 -1.9396524 1.1499113 -0.42943117 -0.3260492 -0.49398577 0.13547869 -0.96619165 0.07009677 -1.439706
23 0.07059463 -0.67879045 -0.26283392 0.74116594 -0.1831481 -0.065171644 0.6199931 0.45973915 -0.56618273 -0.23009263 -1.4921253 -0.44621992 0.13933663 -0.543363 1.0958968 1.7080873 -0.9993938 -1.0751305 -1.1910366 -1.2818481 1.0361378 0.69358224 0.852744 0.6085158 1.9309375 -0.53634953 3.1286967 0.3894267 0.6306269 0.3997879 0.2685763 -0.52616835 2.50418 -0.3744403 -1.4823848 0.531408 1.2047218 -0.6013119 -2.2466033 -0.6548986 -0.1716266 -1.883735 -1.1975124 0.35933957 0.9442231 2.3230062 1.4918976 0.050176412 1.117252 1.2107966 -0.25260282 1.58777 -0.8052161 1.0905472 -0.41742495 -0.9306004 0.38845772 0.618837 0.23497507 0.21024506 0.042764913 0.8853124 1.3692125 0.3066462
22 -0.052122008 -0.54912716 -0.45824257 0.6547336 0.24296223 0.21096238 0.8267987 0.11177906 0.2025075 -0.5226323 -1.3327734 0.02439568 0.42235482 -0.42238152 0.9099711 1.8450352 -0.90122604 -0.6820932 -0.68343145 -0.66222495 0.4496428 1.1111968 0.29805088 -0.014066964 1.2921416 -0.2511667 2.6936302 0.19768164 0.8187776 0.5284983 0.40079403 -0.41484526 1.8305614 -0.23878846 -1.1965377 0.49612746 1.018571 -0.64468557 -1.6611781 -0.5673767 0.14909792 -1.4681468 -0.37027854 0.87571394 0.84146327 1.8399215 1.0096924 -0.74723554 0.79377115 0.52696896 -0.029712886 0.8048302 -0.4647106 0.3767955 -0.89679503 -0.52220833 0.058323923 0.34825832 0.057886217 -0.515391 -0.15144445 0.67884976 0.88010025 0.5637544
1 -0.11724812 0.23314977 -1.4093328 0.8815244 0.23652555 1.6508081 1.6432364 1.2113872 -0.09775277 -0.033767007 1.2730559 -0.09752503 0.47516635 0.33744627 1.1753725 0.19581175 0.41799867 -1.0500531 0.5313933 -1.3282613 -1.5833145 0.8159204 -1.0231905 -0.8099055 -0.027430383 -0.26595917 0.4955429 0.684152 0.8013285 1.2662452 -0.39344406 0.86263746 -0.2629308 -1.863941 -1.0411369 0.600629 -1.1148944 0.9485743 0.50153685 -0.2918211 -0.024279535 -0.7009625 1.2598218 -0.08736924 0.008470647 0.5662007 -0.33378378 0.6977107 0.31747293 0.36221066 1.2679492 -1.341974 -0.2849185 -0.48603085 -0.030570643 -2.1615236 0.7579498 -0.1772507 0.011850944 -0.1449824 -0.13382874 -0.3795885 0.02137161 -2.0340207
11 -0.257113 -0.6703396 -0.044739638 -0.46371558 -1.5051843 -0.3980078 -0.53761035 0.016664295 0.12583594 0.51963925 0.86809796 -0.57281107 -0.13564381 0.4982185 -1.7583084 -0.60908514 -0.2278768 0.5674186 -0.4746324 -1.4030383 -0.8218223 0.5814085 0.67653304 1.9079909 -0.88260436 1.4126494 -0.68610895 -1.3703803 0.6457954 -1.3624523 -1.6164669 -0.9568522 -2.6172836 -1.5329839 0.23550655 0.79356843 2.1320279 -0.043510817 2.551711 0.065569274 0.33509207 -0.35598963 -0.14353135 -0.6959906 1.7934612 -0.48479572 -1.623646 -1.220655 0.5637224 0.008039653 0.14051883 -0.09754494 -0.37137783 0.73893017 0.7312609 0.9308514 1.0479463 -0.95898217 -0.089224026 1.253954 0.7469401 -0.5773995 -0.9178 0.6849031
15 0.5412236 -0.643907 2.344078 0.08115638 0.43406165 -1.6138653 0.009747616 -1.0104369 -1.8457562 0.18425122 -0.06435003 -0.7065463 -0.6859167 0.669651 0.1801634 1.0338023 -0.7152289 -0.2689774 -0.086110614 1.3478267 0.80030584 0.68571013 1.5309494 -0.63094956 1.1770223 1.275517 -1.1002316 0.27853802 -1.2276727 0.10214878 0.8797665 -0.22724265 -2.0669231 0.021626484 0.8887774 -0.98810977 0.39735243 1.4106685 0.34132287 1.1376201 0.77101874 0.18362294 0.12675507 -1.2736623 -1.0237848 -1.186299 1.5033588 -1.1015936 -0.6987657 0.45471364 0.26062477 0.18794161 -0.4478324 1.4896715 1.036209 0.91838497 0.8578151 -1.2948161 -1.5047227 1.1362556 0.4647822 -2.963344 -1.03635 0.013181039
32 0.6840206 1.2931385 1.1934322 -0.915937 0.07060564 -0.86879665 -1.1322523 2.9450076 0.096841514 -0.4310036 -0.6309469 0.0832127 -0.09541785 0.12908733 0.48212352 -1.3769611 -0.9586714 0.9159264 -0.69425905 0.87087667 1.0736132 -1.6540872 1.2337613 -0.4489424 -1.2195256 0.77558166 -0.49582896 0.74959683 0.78297323 -0.10266753 -1.0145577 0.9584707 -1.5087525 -1.4844677 0.9706485 1.1074972 -1.173057 1.932725 0.7414457 0.38320234 -0.77179974 1.1930355 -0.7043303 -0.33780643 0.2892742 1.2282237 0.019590924 -0.08015288 0.18870108 0.98007274 -0.47942117 1.3587543 1.4292502 1.5116829 1.930249 2.1105423 -0.49397722 1.2919883 0.62130326 -0.8062152 -0.30180544 0.8441052 0.41816282 1.1623306
27 3.2357578 -0.23811893 -1.8520555 -1.5726956 0.29200017 -0.53071266 -1.0128739 0.3655507 0.7557768 -0.97028244 -0.23795179 -0.28712013 0.4006673 1.8400792 -0.014572105 1.7330364 -0.41729325 0.71987146 0.50646156 -0.6029804 2.2673693 -0.5521422 -0.04965697 -0.17565474 -0.78631413 -1.1823035 -0.18749955 -2.4808965 -0.28497186 1.6717981 -0.16870745 -0.3242614 1.5022215 -0.29564175 -0.8538287 -0.7101409 0.09204002 0.25245312 0.769634 -0.103058666 -2.707408 0.7629897 -0.19520679 -1.6294615 -0.83057016 -0.8916936 -2.5844495 -1.6824293 0.2822165 0.20339118 0.44672137 0.8294032 0.02840297 0.11525737 0.8523343 1.9464912 0.99104863 0.2606158 -0.21517318 -0.44060373 -0.59978485 -0.5532694 -0.21630326 -1.7747487
7 1.4322811 0.62120384 1.3999201 1.0409027 -0.6861224 -0.020842658 0.21056004 -0.29266828 -0.38762552 -0.37175277 0.4966679 -1.2942735 0.28281334 2.1480656 1.5544783 0.6738537 0.4597941 -1.3041391 -0.1857769 0.9671942 -0.34817287 0.7407124 0.283787 1.289872 0.41631493 0.30990437 0.93523383 0.14352946 -1.0729722 -1.4676404 0.53192925 -0.20482104 -0.8431107 -1.3036262 -0.6095095 -2.511426 -0.5449521 -0.43732163 0.61899686 1.9245504 -0.22617461 0.72939414 1.3905225 -0.8008532 0.044368643 -0.13376991 -0.87148285 2.1851907 0.79450023 0.77576035 -2.7021348 -0.19920021 0.51659244 -0.7462874 -1.4836307 2.6553767 -0.65118 -0.79408944 1.6636103 0.30275273 1.810674 0.2373177 -0.6011424 1.2895724
3 0.77030534 0.6491628 -0.881157 0.75937504 0.3799463 1.2267295 1.6076903 1.9411042 -0.61640185 -0.20762944 1.6051757 -0.86738944 0.13672602 0.42008558 1.579468 0.6622776 -0.018277032 -1.9676932 -0.087083176 -1.3072598 -1.757071 0.3460019 -0.601248 -0.09734161 -0.66448283 0.16235557 0.32947773 0.46634886 0.44735113 1.2800012 -0.80605507 1.2988037 -1.8139749 -2.1020105 -0.9351295 0.6039801 -0.67029566 1.3133398 1.1634926 0.3629941 -0.12019462 -0.47465733 2.4984457 -1.0256274 -0.3963651 0.76405114 0.21647473 0.56159353 1.198804 0.7286772 1.9398209 -1.2274704 -0.41709447 0.15292235 1.6313283 -1.3180249 1.6248838 -0.3819159 0.04820685 0.049169026 0.46232817 -1.4817963 0.80415195 -1.6280602
